hats,5.25901,3.07433,5.77151,3.21389,1.61293,0.992511,1.37986,1.49025,0.481196,1.40509,1.56286,3.50631,4.25852,1.43433,1.20409,0.598045,0.375575,2.9865,3.34947,1.75174,0.252378,2.57941,0.759511,4.87389,0.435376,0.5842,3.38258,1.28117,1.81739,1.6108,0.947204,2.44438,2.32665,4.21079,1.73372,1.87944,1.1922,0.751555,1.28933,0.90037,1.5491,6.28909,2.43095,0.940254,2.26198,0.600806,2.67575,3.02347,5.71644,0.559142,0.863928,1.35799,1.91066,2.60212,3.41444,2.69469,1.81532,0.523828,2.49129,0.552886,0.45673,0.251769,2.75246,4.43538,3.29304,1.43512,2.97617,0.819124,0.636831,0.725763,0.576698,0.950714,0.582829,3.19467,0.934612,1.39913,3.72151,1.60222,0.494888,0.543259,1.12965,1.12141,1.90096,4.05829,1.62807,5.74598,1.12014,2.12981,1.53762,1.73273,0.611595,0.639403,0.380157,0.785978,0.561116,0.906092,0.198898,0.775866,0.505329,0.514569,1.92792,3.15576,3.831,3.45554,0.488215,2.81416,1.73393,4.67216,1.38783,0.125886,3.20732,0.298065,1.51206,1.96071,4.45747,1.38459,0.908876,0.392645,0.841571,0.582268,1.95519,1.37258,1.88067,1.26717,0.939908,2.30958,4.21225,5.98955
felt,4.95928,2.12943,5.04915,6.17527,2.30433,1.26085,0.730567,0.427028,0.676375,2.79471,2.3998,0.607025,3.36495,1.08442,0.915386,0.284364,1.21494,0.967343,3.7676,2.58777,0.334865,1.35291,0.595902,3.53278,1.98846,1.42377,4.82399,2.18498,0.702123,2.4339,1.20524,1.70441,3.47796,4.4403,0.690032,0.57775,0.942159,0.821669,1.91493,1.94045,1.39852,4.35051,2.55818,0.188188,0.513618,0.65602,2.84449,1.18683,5.11297,1.44739,1.18546,2.01987,3.76179,1.17505,3.21034,1.64332,0.459542,0.852187,1.26591,0.517979,0.436518,0.435953,0.718036,4.25188,1.19886,4.60623,1.49956,0.876425,1.43208,1.39213,1.1277,1.83897,0.262953,0.584799,2.33743,1.24988,3.15292,0.879584,0.452633,1.44485,1.49694,0.902918,5.08814,0.945283,1.37165,6.08773,0.811518,0.949978,1.61481,0.860341,0.664603,0.804525,0.629483,1.39813,0.789225,0.386551,0.160246,2.25477,1.54708,1.34526,1.98639,1.63021,1.86718,2.59728,1.56518,4.28049,1.50593,1.24006,3.16019,0.42362,1.49991,2.11074,1.8667,1.44816,5.08381,2.87457,0.652908,1.45865,0.916004,2.0993,4.90365,1.3776,3.47113,2.46905,1.91044,0.461163,4.3788,5.17053
hitch,3.8352,1.09323,1.91619,0.844456,4.02091,2.16275,1.78556,2.22639,1.87782,0.881344,1.38345,2.06502,1.07506,2.60143,0.876134,1.75532,1.65568,1.92967,0.470159,0.57552,0.783936,0.457625,0.697241,0.428835,2.30714,0.809344,0.848369,0.263195,1.3148,1.10104,1.1418,3.08583,0.710252,0.493863,1.64239,2.12309,3.31583,0.642342,2.62886,1.76751,3.54173,0.699859,2.9159,1.82324,1.61866,2.57158,1.11935,1.63019,1.72846,0.795375,1.01193,1.85059,0.416848,1.97959,1.16742,1.45935,0.948952,1.11277,0.558157,0.657235,1.24677,0.968097,1.0705,2.27837,0.828302,1.54081,0.65122,3.19069,4.57794,1.31252,1.64175,1.68833,3.76683,1.51834,0.499705,0.967786,2.10256,6.17433,1.99472,1.13086,1.2152,2.28638,0.694992,1.72652,2.43051,0.349434,0.315365,0.804116,3.47864,1.13735,2.62951,2.16826,2.53781,1.39926,1.69065,0.861598,3.1864,1.39808,0.596953,1.01412,1.36278,0.584813,0.922015,1.0213,3.09582,1.51297,1.98392,1.69808,3.76019,1.89894,1.35841,1.49292,2.32132,1.07195,0.70984,1.26298,1.24123,1.62959,0.182402,1.61096,0.201558,1.57628,1.30983,1.49141,2.17079,1.0744,1.6355,2.33143
straws,0.875295,0.573453,1.94294,3.60622,1.8557,6.26915,5.44672,0.345039,0.879932,2.30356,2.34612,1.91655,1.83654,0.818237,1.0607,0.910015,2.25308,0.40508,5.01311,4.19977,0.512557,1.70271,0.8917,3.06801,3.86124,1.54693,1.80672,3.6481,2.2019,1.37999,1.36694,0.872594,5.93082,1.76192,0.921954,0.604711,0.773447,0.324457,3.58908,1.62477,3.15074,5.48369,3.01179,1.06725,0.9346,0.424805,2.11174,2.40279,2.1019,1.79921,3.43027,1.69148,4.29008,1.09234,2.46627,2.17637,1.72348,1.42321,0.523417,0.878025,1.61781,3.14956,2.6206,1.61498,4.11358,3.31032,1.24545,1.39149,1.21778,1.45358,1.37084,5.87352,0.325595,2.61138,2.19212,0.891549,4.24697,1.14419,0.65067,1.31351,1.00883,0.764696,2.57606,1.227,1.87317,1.71955,4.05203,2.55554,0.834489,3.41588,0.515466,0.875936,1.00108,0.792597,3.33581,2.15599,0.717067,0.821362,0.779561,1.45497,3.54963,1.79283,1.3124,5.00201,1.83115,0.944893,2.03461,3.05476,1.41395,0.642394,2.1631,3.74489,1.54486,0.786819,2.3626,0.795318,0.517769,1.28965,1.44957,1.1949,8.27321,0.646182,1.81452,0.804193,0.391887,0.355905,1.4089,2.17528
woods,2.87089,1.1201,6.13934,1.25487,-0.121967,-0.277963,1.22524,0.0892449,3.77348,0.454705,1.0275,3.81031,0.419288,4.9122,3.57437,1.47323,1.46418,3.7753,1.02146,0.724067,1.36591,0.461933,4.35992,0.75153,4.2868,2.21873,0.278227,1.84071,0.905991,2.47562,0.995254,0.374839,0.050132,0.55238,1.29443,4.42753,-0.534191,-0.141436,4.78773,1.76004,-0.26594,0.0187091,7.80214,3.34462,3.67322,1.80361,0.901862,1.25861,1.74633,2.00039,0.638189,1.17365,1.36018,1.63114,0.287358,-0.0413132,0.180129,0.394263,0.469867,0.284028,-0.018684,4.1804,3.03544,2.69821,6.99499,0.80364,0.375516,5.10713,0.282197,4.84127,0.908799,0.624301,4.41569,-0.44021,2.50306,0.59444,2.06398,2.0369,0.61832,1.14626,0.698555,6.22529,0.780779,1.22557,2.24903,0.848356,-0.0678678,3.944,2.87522,1.24759,0.0552637,2.38102,0.760642,0.0781076,0.597068,0.354226,0.841867,4.70455,2.66086,-0.647394,1.29497,2.78728,1.72233,2.2809,4.90424,5.65566,0.936952,2.17063,0.2009,2.93987,-0.279629,0.617288,2.06637,0.813184,0.00570393,3.75726,3.28402,6.31498,0.835185,0.84416,2.52868,-0.173392,3.03951,4.24095,1.40042,4.22791,4.7247,7.58623
railing,0.619135,2.11336,3.78722,0.491559,1.5868,3.16232,0.738454,0.568982,6.94469,3.76149,0.980161,0.312159,1.11864,0.948545,1.81142,5.39589,2.69338,0.839168,0.266802,0.305274,4.59047,0.671248,1.90328,3.6648,2.3433,0.0230912,1.08552,1.30014,3.77781,0.172167,4.93901,3.54249,1.10819,0.0841422,0.320128,2.36378,0.872971,0.75035,1.85553,0.729966,1.96456,0.716428,2.95291,0.884656,2.64317,2.11623,0.941536,4.31818,0.845725,2.34389,0.415939,0.140232,4.57286,2.84702,0.170688,0.513153,0.754353,3.23278,1.28266,0.17746,0.790054,2.97637,0.55984,1.20861,0.329111,1.3026,2.7397,5.8384,0.915413,2.17788,3.97227,1.16437,0.81966,1.84814,0.803016,1.38118,0.962747,3.09919,0.998088,2.04828,5.0584,0.721133,0.583501,0.483892,3.24089,1.11818,0.283828,2.68083,0.849557,1.23903,1.2393,4.38359,2.01215,1.07884,0.806945,1.30903,4.63688,0.229048,4.21893,2.95284,0.52266,1.97614,0.716766,0.377124,0.423483,1.66753,4.51742,0.578512,3.40408,0.604248,1.54088,0.853456,2.41178,1.87987,4.56842,0.711519,0.497757,3.95367,0.821638,1.33689,1.4796,0.629299,1.3905,2.29644,2.61231,0.687836,4.47928,1.26164
mansion,0.0727699,1.19083,5.73661,1.27589,0.831755,0.64215,0.146644,0.30519,6.66826,0.401163,0.136197,0.330059,3.46947,2.18676,0.989459,6.44426,3.94207,0.0894278,0.880106,3.54384,3.43842,0.552799,1.10006,1.88777,3.87266,0.113455,1.04049,1.45631,6.62797,1.13802,2.92487,0.654966,0.274167,0.0904603,1.306,0.364169,0.740551,1.80703,0.254219,0.117314,4.45823,0.0936825,4.2566,2.44205,5.68446,1.11017,0.353896,6.55021,0.764924,0.313526,2.46675,0.425445,2.38669,0.743694,0.0991884,0.37173,0.289818,2.20667,0.105955,3.91139,0.381969,0.917836,1.15952,0.238939,0.178856,0.206124,2.13884,2.68304,0.358866,0.248268,2.69461,1.13171,0.251207,2.38245,0.206406,0.471287,0.534791,0.908049,0.661035,2.46626,1.30922,4.46778,1.04754,0.0640393,0.470546,0.190526,1.02755,3.18636,0.816442,2.80049,4.06362,1.06539,1.09804,0.779096,0.0847003,2.16074,8.3717,0.150012,0.393375,3.51077,2.90711,4.1189,2.31549,0.323201,1.47192,3.92142,5.58149,2.53237,0.724644,0.344896,5.38751,2.48989,2.79251,0.381743,4.19645,0.240001,0.336646,0.0881408,1.33618,3.71643,5.26355,0.174384,0.983584,5.13464,3.17491,0.132789,0.208163,0.150275
captain,5.6495,0.737453,5.39669,0.232863,2.19615,0.723979,0.514186,1.51175,1.91539,0.462789,2.40743,2.33115,1.62868,0.770796,2.37269,2.34049,0.338394,2.35206,0.350329,1.44747,0.987877,1.7275,1.21922,3.29643,3.69607,3.69976,0.561227,0.540895,1.78686,1.75494,1.35765,0.352468,1.00773,1.27178,1.36945,4.27071,1.71567,0.604844,2.06627,3.84723,1.9564,2.07224,3.09406,4.38696,4.33924,0.867952,0.55401,0.718486,4.46305,0.601975,0.773057,2.1639,0.251151,1.15095,0.410374,0.364883,1.22958,0.568355,0.435658,0.48852,0.604249,0.277598,3.60719,4.59282,4.5302,0.792612,0.642163,1.51785,0.722475,1.45904,0.878685,1.25671,1.25932,2.56532,0.827241,0.642015,0.786209,1.82073,0.435874,0.169,0.294754,3.62882,0.614561,3.27444,0.946561,0.561893,1.22413,4.62461,0.91489,1.11856,2.53096,3.85091,0.239766,1.8773,0.183455,0.34794,1.05032,0.455111,0.20778,0.563504,0.420418,3.69847,1.65734,0.460787,0.569114,0.905954,0.956048,6.10615,0.31313,0.832423,2.44445,0.535711,3.53124,0.187028,2.27957,0.214643,3.80067,0.5218,0.49672,0.282213,0.423547,0.270202,0.978509,2.57405,1.39653,3.69649,0.92947,5.47499
skeleton,0.692007,2.74968,1.92338,1.20621,1.5475,1.71407,1.47853,0.578397,5.50093,2.27699,0.450178,2.07044,2.07962,0.47469,1.29269,4.82026,3.41286,0.717351,0.455559,0.935111,4.12788,2.28334,0.741911,2.09518,1.50018,0.387153,0.739376,0.695559,3.95373,0.860042,2.76596,1.75774,0.988549,0.577733,0.747601,0.988217,0.705638,1.50653,0.754089,0.748708,1.19217,0.890543,2.92081,1.38456,3.08172,3.41264,1.18225,5.39415,0.710218,2.6728,0.937138,0.386567,3.01868,1.14026,0.376747,1.15203,1.10996,2.3362,1.03871,1.05254,0.899434,3.09736,1.40807,1.12012,0.970842,0.566473,2.70098,3.33689,1.11224,1.09774,2.25979,0.944944,0.459215,1.17468,0.961411,2.5611,1.57041,1.87831,2.25218,1.21753,3.10761,1.84701,1.08689,0.411289,1.93574,0.868142,0.605594,0.867544,0.816604,1.23845,0.729677,3.39775,2.03945,0.5402,1.4241,1.19902,5.91857,0.536185,3.24506,0.560406,1.78772,2.912,1.19687,1.41614,0.592909,3.5194,1.8693,0.512968,0.576695,0.607515,2.46674,0.503064,2.74602,1.87121,4.15423,1.10904,1.33294,1.89222,1.23118,1.42158,1.83336,0.916926,0.482346,1.15828,1.26832,0.73474,1.49112,0.856844
trolley,0.214818,3.34046,1.41981,-0.0337541,7.78469,4.93354,0.206111,0.0956145,9.92242,0.00898212,0.37232,0.279676,0.196912,0.274413,6.53232,5.12932,10.56,5.5746,0.367735,4.47086,6.90448,4.12865,3.29694,0.146999,0.583254,0.178895,-0.0344998,0.131155,4.34074,0.181141,0.272508,0.508034,0.328911,0.245296,0.535148,4.1771,-0.0045994,0.358306,0.069605,0.168617,11.1149,8.03625,0.79249,6.56598,7.70161,0.203095,0.302573,2.37483,0.605565,0.0910947,0.160018,1.9197,0.430526,0.213608,-0.0531845,0.0589391,2.79928,0.230191,0.574991,7.46935,0.332494,0.62462,0.77583,7.75994,0.132616,0.204511,1.88776,0.506307,9.53056,0.162943,4.1045,4.87361,0.118049,5.6651,0.424764,0.81662,2.33151,4.72728,3.948,7.38328,4.33924,1.10441,0.0498228,0.345712,0.605308,0.0709167,0.257843,2.69899,0.414991,3.17159,5.60315,9.02794,4.90474,0.167325,0.0275922,2.2621,12.058,1.94833,1.71235,0.519125,0.669617,3.07042,0.678709,0.0842648,5.14437,0.207388,0.689894,2.81138,0.370353,6.67169,8.63038,0.224902,0.35058,0.552669,10.7971,0.0954918,1.65929,0.155052,2.72519,6.27117,0.762536,0.140103,2.20083,0.687472,11.0942,0.299034,0.107327,0.218493
muzzle,3.96415,0.877555,1.49567,0.935082,2.80566,0.313019,0.529558,2.89647,2.95417,2.27244,6.20958,2.28187,0.36828,1.57915,2.87632,3.17073,0.707845,0.831985,0.905191,0.744865,1.38568,1.67161,2.94644,0.818487,2.96668,0.236429,1.92929,0.528281,0.201659,5.75584,0.446032,4.78722,3.87169,1.05477,2.53199,3.26013,5.9547,4.33703,5.23079,6.00224,1.09426,1.01442,1.04919,1.6751,1.29845,2.29314,1.87101,3.04261,1.00838,5.12148,0.85143,2.68712,4.60167,3.91045,2.30017,1.2268,2.08275,0.541577,4.50377,0.639896,3.63894,0.115654,0.506672,3.60149,3.50229,4.28393,3.72608,1.01958,4.94244,2.11454,0.839854,1.44016,1.70586,1.99504,1.10516,3.41069,1.25527,1.00418,0.42851,0.844334,1.72114,0.549554,0.898125,1.22917,2.98094,2.73023,1.07064,0.731534,1.28104,3.8953,5.12333,3.02069,3.74565,0.826349,1.94457,1.29075,0.316798,1.75545,0.505335,0.461273,1.77534,2.99382,1.35142,3.79265,2.15286,5.37527,0.265399,2.56149,1.6728,0.795968,4.02733,0.207521,4.36462,2.52591,2.92293,1.89615,3.1312,3.18652,2.47514,2.43803,0.68359,4.2384,0.604942,3.33422,1.04759,1.58358,2.48752,3.97967
clasps,4.05401,4.89106,8.42643,8.56188,0.719613,0.533712,1.10588,0.607096,1.03568,1.33738,0.720417,3.84408,2.69891,2.4013,0.613096,0.202433,5.47929,0.395914,1.32313,5.3184,0.250622,0.668632,1.05267,3.33003,5.97614,2.53522,1.18573,0.325554,0.305199,6.35534,0.416679,0.743542,1.63699,5.99992,1.36118,0.971757,1.04219,0.165366,7.07671,0.744426,2.86535,1.28792,7.60203,0.238786,0.276588,0.764837,1.28897,0.399981,4.54086,5.06304,0.98231,1.09067,0.786692,3.7414,0.761064,0.656949,0.469408,0.589514,0.20916,0.277829,0.291931,0.871678,0.262247,2.26745,3.38034,5.75991,5.24512,3.27599,0.705733,1.26575,0.390954,0.696607,0.845797,0.264551,0.549366,2.86397,8.14409,0.81268,0.223804,1.46914,1.27338,0.757327,7.10817,0.487555,0.43628,4.92343,0.472033,0.553665,4.81627,0.955979,0.10897,0.311982,0.54395,1.12307,2.04196,0.370569,0.130447,1.79045,2.45328,0.395143,2.31891,1.32946,3.92309,5.07122,2.02317,6.77011,3.85498,1.66048,4.73939,0.414515,0.622942,0.647066,2.13544,0.665019,3.62295,7.39356,0.525153,5.86107,0.834313,6.45936,3.09542,4.64287,6.25336,2.61526,3.2844,0.449839,4.87483,7.86604
patches,6.4798,4.3784,4.97066,4.14506,0.437805,0.356047,0.219144,1.01736,2.31793,0.830408,2.17475,0.202538,2.10177,3.83064,5.45038,1.40775,0.314085,0.408144,7.41683,2.33144,0.440784,0.619942,2.82318,5.59544,3.24998,0.411585,2.93302,1.1518,0.501482,4.367,1.46503,0.795885,1.0856,6.6181,0.132076,1.33106,3.67507,0.724246,0.71242,1.89719,3.64288,2.2296,0.937159,0.214442,2.19487,1.30108,2.80175,0.634765,7.8224,3.41052,0.397784,1.38702,2.15087,2.0805,2.28015,1.52274,0.553507,0.130066,0.742253,0.664612,1.39406,0.356451,0.51943,6.34187,2.61385,5.71438,0.914479,0.343015,0.714072,1.34878,3.36949,1.32121,0.690184,0.150914,0.847583,0.428185,3.43644,1.92769,0.656146,0.221383,2.75916,3.31469,3.38999,0.458162,1.62146,2.79129,0.545152,1.09524,0.647268,1.88268,1.26936,0.913539,0.394293,3.97869,0.389307,1.20339,0.230403,3.57838,4.76105,1.79371,2.54097,0.581475,3.93028,1.37939,1.26628,3.24881,0.736826,0.969048,4.36933,0.15721,2.90929,2.29622,2.06947,0.641967,7.05432,4.3957,2.34345,0.511026,2.51468,1.80394,2.36758,1.63819,3.54824,3.34475,6.17584,0.232234,1.76015,5.50084
swan,0.178527,0.643869,0.158717,0.170373,1.153,2.3859,0.441102,3.15316,0.122419,7.66919,3.25536,0.213814,8.32442,0.151216,0.0900416,4.39556,1.27849,0.958786,0.105292,0.667545,0.797595,6.91675,0.192895,3.081,0.534632,0.476666,2.33005,3.50752,0.308388,0.665875,0.243145,7.58811,0.219892,1.00097,0.117992,1.00792,0.750469,8.02538,2.02225,1.48274,0.314648,2.06274,0.63255,0.781229,2.89569,0.457857,1.53079,1.0198,1.77635,1.26649,5.32437,3.60981,0.317379,1.75232,0.895461,0.93409,4.0104,2.71555,0.575544,0.934655,0.960274,0.67189,0.518697,0.216354,5.28019,0.219589,7.5524,1.41494,6.67078,2.47095,0.361665,0.115058,0.685145,4.39868,3.98793,0.633189,3.94674,0.595107,0.435821,7.44952,0.193591,2.7177,1.94397,5.07075,1.58012,0.569183,8.27996,0.268812,1.95413,1.05007,2.51955,0.598054,2.38581,1.67657,7.07632,0.948598,4.11049,4.75853,5.41454,1.92356,0.679798,3.43611,3.5967,2.88894,1.89474,0.192903,3.33855,0.347417,1.26454,5.06262,0.217571,8.74191,2.47942,1.60709,1.36484,2.66995,1.03339,0.0835285,3.92098,0.867529,1.93126,0.0992313,3.08282,7.84535,0.228014,1.10211,2.96355,0.283598
glider,0.480303,0.35655,0.504171,0.224024,2.37063,1.06363,1.01229,3.64706,0.624103,6.59834,0.703457,0.451698,2.68715,0.588966,1.67474,3.06913,2.06036,1.74698,0.726552,0.730666,0.433314,1.29135,0.970129,0.254699,4.32501,0.739693,0.791004,2.224,5.04445,0.424836,1.93356,2.32872,1.74963,0.149418,0.576644,0.384157,1.13055,4.92193,0.89934,2.81291,2.89759,0.898003,3.53291,2.63022,3.92012,0.55539,1.12954,4.10942,3.28377,1.38349,2.24263,2.82331,0.401141,0.834734,0.287217,0.259704,0.317753,0.794157,0.35416,1.05292,1.0795,4.05531,0.880813,2.30613,4.04496,1.30459,0.652412,2.91187,3.59114,2.08308,0.32971,0.592468,1.72601,0.53042,0.853251,0.879289,4.11425,5.18591,2.75457,0.59426,0.598137,3.93168,0.512909,4.3582,4.6191,0.736701,2.65146,0.881189,2.52236,0.299111,1.12249,0.978953,0.887973,0.461869,3.80588,0.557358,5.71405,1.05217,3.52828,2.09449,0.99635,0.521832,1.34979,0.641747,2.22519,2.04915,3.46261,0.513133,3.57944,4.1238,0.312121,0.830251,3.38562,0.163675,1.0392,0.433638,2.88856,0.742835,0.491051,1.50922,2.40893,0.177141,1.10953,4.70128,0.601578,0.537624,1.59826,0.876067
bike,7.23513,2.74092,0.619296,0.14641,5.0277,5.35138,5.32841,1.41294,0.869946,0.13073,6.33856,1.02531,1.70134,4.82051,0.708672,0.861286,0.358945,0.213075,-0.0734098,3.31458,0.0601778,0.0436279,0.839659,0.363007,4.70958,0.430839,1.07247,0.224286,-0.0776906,0.964771,0.451275,5.09909,0.39281,2.15168,2.44134,-0.0330159,5.86355,0.759272,0.682558,5.32385,7.45903,0.141867,0.205967,0.705335,5.51545,2.18194,1.13364,4.55073,5.01729,0.243582,0.327985,1.54859,0.464538,5.81553,0.197767,0.239735,1.24443,1.00733,0.720288,0.879569,0.021813,0.579774,2.61494,0.998391,0.889787,1.28963,0.522023,2.33663,4.9971,0.178802,0.83021,0.496999,4.45898,4.55184,0.363458,0.500936,6.77582,7.56885,1.03045,0.119008,0.262745,4.0416,0.249385,2.23827,0.580276,0.132309,2.04686,0.105798,4.27099,0.899343,0.454912,2.79554,2.29095,0.400606,0.577034,-0.119784,6.92494,0.93726,0.137487,-0.21659,1.35004,2.86854,1.60776,-0.0960051,2.72564,3.00779,0.440823,5.53496,6.28031,1.94423,-0.091504,0.504729,5.4177,0.286343,0.425217,0.594046,1.02614,0.320127,0.604526,4.84089,0.130448,0.219836,2.96215,0.60281,4.96778,0.533764,0.241467,0.536423
teaspoon,2.57242,0.838988,3.82323,3.88926,2.69328,0.7332,0.475649,1.30703,1.26823,1.04057,0.382944,1.36256,1.43475,3.10018,2.25121,0.232219,0.661202,0.434619,5.60888,2.13305,0.494355,1.06933,2.00576,1.47597,1.05013,5.48739,0.974095,2.07504,0.352297,5.24574,3.58202,0.978695,0.405215,0.847867,0.55794,1.35878,3.3621,0.178368,4.07333,1.60054,0.814092,3.87554,7.70028,0.276379,0.467894,2.15054,2.10759,1.17246,1.77082,3.7954,1.41401,1.37455,0.436134,3.25976,1.12667,0.690175,1.96429,1.69517,0.503217,0.169054,0.306122,1.29575,0.813945,4.94735,4.55133,5.91434,0.996251,4.45854,0.691499,1.57961,2.46806,0.775951,1.54386,0.384241,1.18817,2.97444,5.93096,2.61941,0.923104,2.66205,0.311846,2.37032,1.36849,5.21032,2.74374,1.73654,0.504038,0.587163,1.49507,3.7893,0.0723482,0.616444,0.872571,1.46459,4.98212,0.743751,0.125451,4.13363,2.76111,0.377608,0.211638,1.97022,0.495388,1.1676,2.25506,1.03534,1.38694,1.15407,2.18878,0.973444,0.326154,2.16226,5.27965,0.563109,2.07825,1.32421,0.532257,3.41863,2.13524,1.90547,1.38643,0.88847,5.89381,3.86836,0.468946,2.14996,4.91163,7.96805
booties,4.22896,4.5514,3.77176,7.303,3.24544,0.958934,1.40384,0.578336,0.474831,3.19638,3.45722,0.325627,4.25647,0.572997,1.81753,0.261807,0.730835,0.874025,3.99223,1.56919,0.125686,1.09946,1.44964,6.3044,2.00199,1.33119,4.83634,3.37735,0.240657,3.63843,0.409128,2.91928,3.68503,5.71479,3.00961,0.878761,1.48491,0.671324,2.46996,2.63347,2.2636,5.87195,1.38016,0.326223,1.31599,0.432319,4.41212,2.09647,4.57215,0.54303,0.779598,1.68946,3.03461,1.67753,3.5817,2.01593,0.564747,0.906458,2.57844,0.432022,0.170556,0.124695,0.644627,5.3105,0.930313,3.88842,2.47315,0.431062,2.40384,1.26445,0.613405,1.8753,0.576653,0.80994,1.29978,2.01541,2.82762,0.607164,0.662592,0.820439,1.53093,0.413785,3.78849,2.50836,0.594661,6.9689,0.649406,1.07462,2.57762,0.89232,0.828845,0.207152,0.934822,1.45624,1.69305,0.278497,0.255032,1.47721,0.530277,1.15908,0.574718,2.29677,1.68535,5.4226,1.43259,4.64957,1.62219,0.887426,0.841731,0.434991,1.53417,0.646318,2.30872,1.78565,4.01594,2.7628,0.378982,1.20433,0.39868,1.70632,2.38362,1.81216,2.85082,2.78336,0.618306,1.11365,5.30829,6.02538
trousers,6.0413,1.93606,7.22728,1.36787,0.747765,0.703543,0.822853,0.377321,3.31309,2.07812,5.59653,0.964106,5.5522,0.514849,1.67634,1.10259,0.0990086,2.04891,0.309755,0.340201,0.522233,1.45946,2.30301,4.51195,1.36186,0.731985,5.56445,0.664011,1.20277,1.97432,1.33675,1.10448,3.72212,3.55461,1.73258,1.1041,1.65012,2.04872,3.39051,4.22406,1.38069,6.37245,0.934387,1.28353,4.1351,0.564051,1.54724,0.550772,5.47101,0.438667,0.268599,1.37063,2.1237,0.98551,0.639325,0.378458,2.97894,0.302026,1.02407,0.540131,0.502019,0.125594,1.13944,1.64859,1.08458,2.53968,0.164695,4.28484,0.723145,5.08495,0.384376,1.10925,0.858845,0.749198,1.2318,1.913,0.442812,1.12928,0.0674875,0.0811976,1.93646,2.60622,1.45917,5.1825,0.66359,1.25409,0.5774,3.62688,1.7402,0.0534886,1.45548,1.86226,1.01617,3.00399,0.103273,0.453534,1.27265,0.261136,0.833472,1.6089,2.37377,2.0412,0.563896,1.16489,0.23237,1.33475,0.914688,3.69721,1.02178,2.04277,1.57411,0.407487,3.31135,0.475608,0.48604,0.365059,4.08399,0.297379,0.813934,0.158252,0.112883,2.47293,0.506835,0.566303,0.539001,1.89736,3.20835,7.5285
bangles,3.19571,3.87406,5.72318,6.70832,1.24081,0.778958,1.37709,0.429838,1.13281,0.984887,1.56413,1.98626,2.27644,3.54107,0.689828,0.279391,3.55451,0.375394,2.78025,3.65081,0.261533,1.02901,0.67897,3.64098,4.11211,1.9211,2.07678,1.06239,0.539444,4.71504,0.921862,1.14982,1.794,4.48859,1.78481,0.884041,1.13176,0.284605,4.93278,1.01869,1.74244,2.72246,5.92004,0.305291,0.696597,0.761717,2.15692,0.92016,4.34265,3.18247,1.09011,1.32749,1.82376,3.79882,0.743863,1.15808,0.550745,0.894291,0.555487,0.479277,0.408468,1.17341,1.05482,4.66337,2.80766,5.46402,3.96816,1.87388,1.09689,1.05278,0.9858,0.742599,0.484578,0.412133,1.51961,2.61728,6.31601,1.76555,0.434255,2.35739,1.41651,0.838069,4.99757,1.01125,0.668433,4.83133,0.490679,0.659492,2.50729,1.67908,0.385125,0.523282,1.14758,1.66745,1.92279,0.392097,0.306691,1.90199,1.7476,0.46678,1.57615,1.82319,2.89269,3.51251,2.02886,5.31759,2.2466,2.17846,2.54212,0.499846,0.990909,0.722167,1.81097,0.988163,4.38778,4.86159,0.417277,3.97599,1.35894,3.85976,2.83325,2.92209,4.30879,2.68228,2.50784,0.799125,4.3328,6.40437
furrow,0.701127,1.13082,1.96512,2.56142,0.618764,0.334685,3.15476,3.69188,3.17133,4.76989,0.680044,1.31028,4.173,1.31577,1.03777,5.65655,1.61216,0.100687,0.605814,1.34159,1.71335,0.185317,1.02275,3.10925,3.23514,0.258761,2.70082,0.906214,3.2494,0.0970046,1.04615,2.31778,3.11412,1.36725,1.88343,0.28689,3.1934,0.96703,0.619755,0.61745,2.42608,0.920072,3.10345,0.375917,3.6512,2.25309,4.14465,3.90133,2.50195,1.38457,2.9151,0.178813,2.5006,1.28778,0.182548,0.702402,0.560279,0.872011,0.796709,3.08618,1.16871,4.53348,0.834935,0.14895,0.542839,0.431812,2.06037,4.88638,0.408541,2.1546,0.11985,1.14493,0.241009,2.9251,0.756692,1.19875,1.95072,3.73871,1.99113,3.24011,2.59164,3.07532,0.349323,0.244796,1.76324,0.289815,1.19098,4.50849,1.95518,0.512856,3.1038,1.18168,0.409837,1.82081,1.18039,2.92422,6.99526,0.489558,1.39627,3.13385,5.78983,0.352563,4.57463,2.07751,0.872869,0.963236,5.3183,2.3852,1.88276,0.587139,0.659412,0.891059,1.67838,0.362429,2.82574,0.499676,0.519112,0.741529,0.487276,0.509478,4.29345,1.44951,0.300745,1.3646,1.04776,0.361717,2.82382,0.256031
lure,3.26224,0.679294,2.93954,3.64342,1.62472,2.02331,2.3549,1.1136,1.49904,1.64343,1.46332,1.03542,1.23301,1.33604,1.9338,0.627628,2.5508,1.98975,2.96667,2.44746,0.615389,1.64864,1.67594,1.39656,3.12121,2.24446,2.15775,1.8643,2.27391,2.40973,1.34773,1.27615,1.14639,1.26508,1.97476,1.64454,1.92611,1.14126,3.91238,1.98873,1.93712,1.61569,3.12103,1.05916,0.6943,1.37927,1.79077,1.09136,2.608,2.36283,1.14985,2.85836,1.13703,1.55064,1.85329,1.54181,0.793589,0.715046,0.903949,0.618396,0.996523,1.12323,1.17778,3.29413,2.92889,4.1663,1.73468,1.56961,1.96581,2.77162,1.07742,0.789915,2.00467,0.655109,2.02066,0.825313,2.54407,2.67207,0.491337,1.91329,1.02834,2.82876,3.32938,2.68143,1.71969,2.39782,2.58661,0.332037,1.13798,1.47563,0.399655,0.848598,2.16082,1.05302,3.92939,0.918947,0.649727,3.41747,2.06952,0.802762,1.79255,1.17941,1.41801,1.8366,2.61469,2.91078,1.18752,1.0106,3.37822,1.75116,1.15485,1.81489,3.69832,0.731725,1.48983,1.63857,0.957299,2.58824,1.04779,2.70488,2.46271,1.33299,2.01869,1.93071,1.22771,1.24167,3.58451,3.7687
ale,1.46791,6.14463,0.2237,0.335035,0.228973,2.08052,0.230733,0.216337,3.55368,0.0143398,6.50005,0.246613,1.77075,9.90845,0.168731,0.256474,5.94161,0.100243,6.94977,1.56422,0.0468929,0.381196,0.10185,0.262309,0.175054,1.64842,0.476314,2.38796,1.68842,10.4428,7.89468,0.201074,0.0817276,0.305105,3.53722,0.769901,0.102392,0.118935,2.32785,0.187176,0.210643,7.71155,6.43145,0.0967083,4.56645,0.589241,0.324192,0.138935,0.416214,0.0970401,0.537836,3.38824,4.1666,6.13073,0.415357,7.92841,2.70657,0.85673,0.123817,0.102791,1.58928,3.91971,5.23439,12.4484,1.48832,9.29796,1.31195,1.1303,1.29306,0.22427,2.83681,3.75455,0.141036,0.141121,2.3155,0.675019,0.583137,4.91421,0.769428,4.0184,0.194355,3.49946,1.0447,0.27733,0.189079,0.220737,0.312949,0.150559,0.0859608,2.17914,2.31159,1.04637,7.65729,2.50388,0.115106,0.645053,0.197112,4.03163,0.131315,0.195425,1.55106,0.85954,4.23224,0.15377,4.13683,5.95011,1.34802,0.190144,0.133973,7.23753,0.219864,2.63873,0.252431,0.0756878,0.786241,0.441237,1.33744,0.328452,9.05582,4.08389,0.642583,0.772929,9.03742,2.82508,3.00592,0.222081,0.204708,1.59815
tampons,5.03251,1.10781,4.27,2.2517,0.61053,2.07891,2.11141,0.620836,0.753489,2.49085,1.71012,0.758298,1.3888,2.51623,3.01226,0.310468,2.25332,1.67023,2.68364,1.58126,0.474342,1.24267,2.8447,1.16852,1.85555,1.02674,3.19382,3.14739,3.39988,3.70291,2.8511,0.832578,0.710246,0.786823,2.09745,1.6581,1.46068,0.257665,3.92554,2.68524,0.473193,3.45364,3.5133,0.544115,0.409926,1.1584,1.72481,0.625283,2.6307,1.4368,1.8679,1.2902,2.76385,0.886613,2.60665,2.05835,1.0306,0.629697,1.48788,0.580829,0.489985,0.939057,1.20134,4.41686,4.39952,6.31902,1.55627,2.55927,2.56986,4.86489,0.491616,0.855221,2.03595,0.311209,2.64913,1.25732,2.22895,4.67932,0.930343,2.10961,0.746482,1.84782,2.34087,2.06639,1.58405,3.50106,0.383359,1.81313,0.897373,0.752637,0.623562,0.659862,0.732769,2.138,2.16088,0.333553,0.166341,3.62692,1.41687,2.1184,0.406377,1.81566,1.80323,0.927825,3.73965,1.62977,1.04823,0.917836,3.01229,1.65674,1.61598,1.59072,2.87003,0.735004,1.16493,2.16932,0.418992,1.47248,0.668378,0.829964,1.47251,0.793873,2.86088,2.45984,0.462814,1.09716,3.93417,5.80669
deli,1.82155,4.0735,4.36265,4.24467,2.9544,4.30057,0.712098,0.138806,4.07743,0.161961,0.924122,0.170373,0.163531,0.532893,1.09792,0.41853,1.21453,1.03898,1.19817,1.29115,3.11154,4.15773,0.37339,1.90461,0.374146,1.69007,0.362056,2.5709,2.09954,2.12082,4.02501,0.192943,0.6646,0.386603,3.54309,3.78135,0.284729,0.255564,0.202904,1.98069,0.885255,4.02355,0.63555,4.24724,5.14737,3.69456,3.36794,2.62406,4.49879,0.383816,0.221942,0.503264,3.49205,2.0398,0.620593,0.43456,3.47714,4.4109,0.308045,2.3179,0.311522,1.68737,4.03677,5.38612,0.214637,1.95866,0.642004,0.306625,0.664316,1.80097,6.70201,1.58996,0.360722,0.639945,1.97693,3.36172,0.718437,5.2013,2.88273,1.1819,0.416343,0.738147,1.99983,0.724753,0.553758,2.21006,0.254243,0.805665,0.177189,0.847819,0.556004,1.04213,3.49751,0.106846,0.23488,0.560407,4.17952,0.45053,0.627049,0.756464,0.842347,2.0867,0.432995,1.18689,5.41099,3.10623,0.958043,1.15186,0.469273,0.590068,3.19311,5.96668,0.334584,0.821232,4.75536,2.48988,0.535233,0.686501,3.39694,0.468002,2.95519,0.102265,2.19669,1.10206,3.1691,0.881099,0.805632,0.330966
blanket,2.87388,0.794233,7.16745,4.02357,0.94785,5.37043,1.21693,0.912302,1.79173,5.27999,4.6519,0.593738,3.14031,0.361235,1.18779,2.61111,0.217166,1.01703,0.21181,0.0342045,4.34644,1.07589,0.984166,4.92587,1.2489,0.342091,5.02311,0.398427,2.90837,1.01336,5.56196,3.00425,4.43462,3.63894,1.86759,2.2328,1.62863,0.652642,1.45866,1.05018,0.631716,3.77467,0.645982,0.477656,4.3446,0.547142,0.631432,0.635036,2.71906,0.742459,2.2633,2.8742,6.87373,2.40266,1.73361,0.557862,0.889281,1.79686,4.42821,2.83137,0.480006,2.36929,0.839269,4.52694,0.638834,0.885714,0.938736,1.37682,1.25559,2.73395,3.11258,1.31251,2.26008,0.0619124,5.20429,1.2951,0.710727,0.599285,0.667346,0.486939,3.21332,0.220153,2.15342,0.692329,1.34173,6.03206,0.692905,2.09039,0.306325,0.288533,4.20824,0.650834,2.25822,1.02469,0.390417,3.11616,0.736565,0.258339,1.07561,4.10244,2.81316,1.11225,0.704012,0.139495,0.576669,3.98642,5.01375,1.50376,6.13917,1.24088,0.546003,0.486182,0.687164,4.77731,2.21023,1.26623,0.563887,1.09199,0.197663,0.185037,4.36947,0.874213,0.665815,0.928673,2.80146,1.53816,2.60027,5.89333
rise,0.859872,0.242887,3.15348,0.389039,0.545598,0.812127,5.69001,4.27859,0.405063,4.64621,0.643992,0.180257,1.02196,0.617227,0.559253,3.81165,0.991541,0.295376,0.248272,2.23089,4.71014,0.300014,4.91215,0.923243,1.10727,0.630322,2.51093,0.499923,3.59892,2.54919,0.292395,0.517711,1.11326,0.274752,3.42822,0.174019,4.22983,6.98065,0.232882,2.79966,4.77905,0.529451,0.53963,0.275608,4.31835,0.479218,1.64659,3.70342,2.75947,2.7518,3.52971,1.49441,0.489893,0.471439,0.61964,0.128165,4.41786,1.08148,1.0404,3.20221,0.774688,1.8104,0.169442,0.159046,3.39533,0.878805,0.658488,1.46118,0.790063,0.517756,0.071443,0.297267,0.499856,1.49403,0.328003,0.764695,2.86647,1.58388,5.9616,2.44542,0.740953,5.63268,0.361376,1.16184,0.284241,0.331876,1.20941,3.10859,4.05239,0.378518,0.816688,0.417865,0.673082,1.86563,0.736094,2.7948,7.9532,0.593302,0.770795,5.13504,6.60548,0.275192,4.23838,0.836568,0.538494,2.39685,4.49218,3.13076,1.76351,5.15249,0.568471,3.06113,0.530039,0.638954,0.59331,0.865313,2.05069,0.7973,2.38109,2.64809,0.852589,1.73134,0.687246,1.52437,4.71637,0.802247,2.43672,0.297885
vase,1.291,1.15155,1.40912,2.97335,4.30085,4.5053,1.39192,1.80769,3.56386,1.00088,2.82924,0.165901,4.26569,6.57263,0.648688,0.235047,0.759364,-0.316632,3.99171,6.69896,0.280933,0.734677,0.595644,0.897234,1.61948,4.23598,3.86296,3.8468,0.527594,5.5794,6.27055,2.25679,3.26322,4.40662,2.28034,0.0949307,-0.508512,0.846503,1.0324,0.173877,1.0422,7.79071,6.32062,-0.337408,1.90547,1.73346,0.813088,0.233336,0.941471,1.026,3.09538,3.06961,4.42591,4.25367,0.493983,3.38819,2.56188,0.67796,0.340628,-0.0209376,0.406486,1.05419,5.98322,6.6848,2.71719,4.60054,0.573108,2.69717,3.49129,0.489672,6.34932,4.21682,0.112895,3.2674,2.98741,0.320376,5.33214,0.420866,0.126282,4.94733,1.75758,0.701036,1.95905,1.08514,0.887569,3.94916,2.54174,-0.225393,3.29667,5.54747,0.0835081,1.83398,3.48195,4.18675,1.94485,0.602161,1.30476,1.95403,0.392094,-0.217805,0.608062,2.97546,0.0751575,1.9771,0.472722,3.3261,5.03413,1.23978,1.50884,2.48825,1.44464,0.65976,0.710481,0.199059,3.25521,0.373318,-0.762713,1.50864,2.14193,1.30687,3.16313,0.641278,4.67882,1.08964,0.152393,0.747975,0.507693,6.25409
leggings,4.54388,2.46696,5.4567,1.40678,1.15123,0.554784,1.35257,0.311748,2.66047,1.27509,4.23321,1.19716,4.64994,0.538956,1.79722,0.316847,0.396258,1.20216,0.951024,0.663883,0.3281,2.07035,2.18168,4.54525,0.938918,0.769731,4.53648,1.96508,0.301223,3.12455,1.85341,1.66876,2.83348,3.73027,2.73397,0.833639,1.9605,2.31864,4.00394,3.59099,0.719381,5.7757,1.50232,1.01768,4.06611,0.47759,1.12819,0.591908,5.16389,0.745512,0.896224,1.30144,1.46012,1.9207,0.39152,0.739041,2.31161,0.0782293,1.13783,0.386426,0.358703,0.15176,1.28504,1.81878,2.1202,3.62353,0.249512,3.92277,0.550636,4.13808,0.350473,0.907465,1.53338,0.633538,0.717082,3.30323,0.860819,1.72744,-0.100452,0.212241,1.45016,1.65833,1.2224,5.73387,0.816275,2.29204,1.06581,3.28656,2.58303,0.196528,0.873564,1.95971,0.418806,2.00801,0.440813,0.629931,0.681597,0.659538,0.689573,1.25517,0.871643,2.11189,0.387837,1.76159,0.0876987,1.94904,0.996918,1.84405,1.38229,1.63794,0.473229,0.184016,3.99629,0.65899,0.67141,0.251248,2.82394,0.502882,0.50078,0.163974,0.134852,1.73775,0.565858,1.3221,0.508853,1.60927,5.04509,7.0673
jack,1.16937,0.876309,2.96516,1.105,1.22204,1.00163,2.00203,1.90995,2.56407,1.50503,1.89092,1.0297,1.23308,0.641217,1.93875,3.12393,0.631579,1.30883,0.36103,0.58531,1.1875,1.2548,1.31568,1.22643,1.27554,1.16146,1.12401,1.0542,1.78338,1.07205,1.21774,1.4745,1.02403,0.700243,1.49183,0.971398,2.36541,2.1486,1.45658,2.40588,2.74185,1.09271,1.6554,1.8501,3.44116,2.90745,2.28735,1.71389,2.33286,0.97622,0.62421,0.540968,1.09865,2.82767,0.485542,0.658034,2.39786,1.35307,1.31603,0.767631,1.86546,0.944186,2.90155,1.24189,1.20244,1.09984,0.698688,2.59015,1.01328,1.78107,1.44032,0.633364,1.04731,3.01986,1.56789,1.3728,1.48387,2.90376,1.11732,1.74683,1.8888,1.72831,0.900338,2.76354,1.94821,0.927279,1.00979,2.02193,1.07756,0.738388,1.68918,2.0998,1.04658,0.656507,0.756656,0.915327,4.0278,1.1946,0.67511,0.423494,1.7483,1.30457,2.33628,1.76808,1.34278,2.01772,0.879496,2.51412,1.02252,1.72011,0.995297,1.33495,1.06954,0.713387,1.31582,0.775667,1.26887,1.09764,0.728089,0.823564,0.885241,0.979225,0.816518,0.720496,1.35645,1.63414,1.35164,1.65302
coveralls,3.9987,0.952776,4.43164,0.816879,1.59676,1.50416,1.68251,0.916643,2.46101,1.51483,3.12269,0.921642,2.21494,0.732286,2.46193,3.28002,0.600444,2.8283,0.241449,0.52407,1.45366,1.96833,1.8484,2.56712,1.48897,1.7896,2.59018,0.359353,2.25436,1.71275,1.34633,0.920062,1.75889,1.67659,1.18292,1.51758,2.34195,1.05797,1.28824,3.49577,2.70714,2.62718,1.22691,1.69351,3.24095,2.06731,1.53037,0.956948,3.29106,0.418794,0.325893,0.70463,0.896558,1.15073,0.585449,0.517981,2.38631,1.08623,1.18043,0.758159,1.10262,0.64179,2.24309,1.86904,1.76753,1.21605,0.380295,2.79279,2.02131,2.77129,1.277,1.45702,1.70528,1.47474,1.155,1.21626,1.29914,3.26978,1.10478,0.908058,1.12676,2.41792,1.23733,4.40351,1.96459,0.661248,0.946296,2.558,1.21939,0.465634,2.51223,2.65553,1.1739,1.31902,0.494522,0.826881,2.94385,0.910412,0.339907,0.340598,1.2217,1.50823,1.29833,1.1486,1.35872,1.05067,0.882627,3.62501,1.03347,2.02634,1.67235,1.07058,2.38007,0.730449,1.72557,0.499022,2.31246,0.738863,0.694685,0.45632,0.385492,0.977234,1.1723,0.569719,1.38097,2.24351,1.35656,4.08357
fireplace,2.09134,1.44658,5.37888,2.78456,2.14423,3.18824,0.60399,3.30081,6.80588,0.267033,0.589492,0.467597,0.374805,4.41953,1.44308,2.03746,0.760348,1.47769,0.267996,2.17884,4.55449,2.019,0.58742,4.82606,0.485691,3.23005,4.91063,0.595529,1.21865,0.954177,7.06096,0.887391,0.658387,0.413361,0.735831,3.07383,1.47795,0.692484,0.636504,0.561007,0.797612,2.83724,3.16354,0.622104,3.43021,1.29033,0.453078,0.821339,1.50451,1.63476,0.292412,1.18258,2.94883,1.62216,1.04221,3.26498,1.49973,4.33513,0.843102,1.55551,3.03474,0.442851,1.35599,1.19871,0.149823,0.792078,0.298209,4.66641,3.67993,1.6568,5.96416,2.18546,3.02683,0.253043,1.22725,0.853064,1.60664,1.68845,3.23109,0.720325,2.90309,1.39027,0.159831,0.204414,2.8545,0.850777,0.57745,1.0473,0.85318,3.82264,2.50741,0.745083,0.784393,1.69389,0.240341,4.16273,3.66976,0.652067,1.64425,3.69137,0.572756,1.86831,0.981914,0.302064,0.458161,1.56627,3.67525,0.729328,3.26092,1.04081,3.66493,1.6368,0.209523,1.61139,1.05094,0.928595,0.352683,3.18705,0.637761,0.750412,1.34254,1.80978,0.727454,0.608752,3.27626,0.654385,0.148119,1.25357
burka,3.19674,0.933589,5.41723,0.75797,0.857347,1.21411,1.03562,0.39801,2.94423,1.31824,3.7169,2.98477,1.43284,0.347807,2.02212,3.0974,0.324911,2.24026,0.421369,0.906302,0.955118,1.42221,2.11403,4.58147,0.58287,0.257614,2.19498,1.16327,3.05648,2.66438,2.50913,2.48221,4.01219,1.51454,0.591582,2.20674,1.66096,0.851861,2.11007,0.879134,3.89697,5.6804,1.78401,1.58894,4.51553,0.684714,0.637824,2.23969,5.0032,0.453389,0.550944,2.93061,1.03628,0.625207,2.4645,1.61925,2.93085,0.707978,1.51681,1.93061,0.804785,0.40849,1.51014,1.53972,2.76677,0.870216,1.75667,2.77547,0.787346,2.96098,0.621849,0.628983,0.535475,2.76762,0.866841,0.575447,0.660253,0.962801,0.417388,0.384013,0.634398,4.16669,0.965724,5.53898,0.315973,2.38643,0.791158,2.6378,1.54188,0.922529,0.911835,0.669302,1.79554,0.522292,0.303625,2.04319,1.7886,0.365446,0.448166,1.78742,1.44899,2.74027,2.50529,1.28817,0.391168,1.63675,3.83527,3.87913,0.534357,1.33111,0.970065,0.536735,0.654607,0.521381,1.55851,0.369461,2.95645,0.240528,1.9757,0.466319,0.718237,2.8357,0.568617,1.1373,2.59786,2.11452,0.91882,5.01637
elevations,0.157094,0.339815,2.68971,1.64403,0.410727,0.454047,5.21193,2.31856,0.988192,3.6201,0.141928,0.196714,3.17817,0.673713,0.840742,3.63235,1.3749,0.105954,0.371122,1.56201,4.66901,0.301329,4.24171,1.97913,0.778084,0.883904,1.25605,1.03258,4.0604,2.12237,0.455291,0.581242,1.51355,0.314823,5.00353,0.188865,3.06343,5.06106,0.15029,1.50969,2.40937,0.485737,0.924326,0.489059,4.60071,1.25962,2.09564,4.06695,1.36208,3.41096,5.28259,0.683806,0.472639,0.29899,0.256153,0.54928,3.5746,1.44792,0.423308,3.97632,0.356091,2.6232,0.267958,0.0917973,2.18604,0.105369,0.747373,1.96531,0.400853,0.610422,0.106951,0.612689,0.55974,2.14023,0.76665,0.6598,2.29937,0.716438,6.10013,3.79848,1.37501,4.28494,0.439073,0.56793,0.251819,0.467561,0.720057,4.15439,4.35139,1.00634,1.29412,0.308259,0.504278,2.96401,0.77221,1.66306,8.09,0.512858,0.388976,5.49089,5.52664,1.02848,4.4238,1.00882,0.346665,1.99509,4.84927,2.84435,0.92685,2.40931,1.58251,3.07951,0.337723,2.0132,0.480392,0.651325,0.652294,0.222115,1.82197,3.01936,1.15223,1.6192,0.315492,0.987341,2.38727,0.961486,2.65577,0.119401
chapel,0.0761737,0.46963,8.60477,1.77066,0.37956,0.544449,0.171002,0.349557,9.32631,0.156191,0.0898078,0.190829,2.2484,4.75566,0.783061,7.79923,1.07951,0.2584,1.25841,5.1976,7.13647,0.597271,0.494188,5.30369,2.33367,0.390244,0.855765,0.490265,5.38482,2.1113,7.92227,0.389542,0.265649,0.158048,0.809797,0.584372,0.914347,2.36891,0.195123,0.104084,2.72381,0.2478,7.23562,2.18074,8.27536,2.85134,0.148918,6.70558,0.688322,0.402252,2.52938,0.995155,4.42703,0.482732,0.342248,0.767757,0.274617,1.67581,0.126262,6.82092,0.372226,1.70047,2.70981,0.677598,0.312161,0.198008,0.575045,4.2184,0.200518,0.500534,6.00589,0.530976,1.76104,0.445041,0.263937,0.428062,0.524806,0.507456,0.650717,0.664513,2.37739,6.50718,1.72403,0.134444,0.517074,0.359323,0.290706,2.32721,0.432754,4.61056,4.45616,0.490015,1.43332,0.406868,0.0372387,1.66571,8.24896,0.154767,0.457906,5.5733,3.81958,7.35088,1.15071,0.286438,0.559735,4.36811,8.10716,1.02088,0.63771,0.26707,3.54814,3.14171,3.46003,0.582168,5.71826,0.462033,0.376895,0.35726,0.313986,3.98711,7.70339,0.760506,0.505074,3.494,6.46731,0.240116,0.205327,0.316819
handcart,3.12615,2.00349,2.70945,0.738355,3.45757,3.08402,1.65236,1.48885,3.98672,2.98813,3.14093,0.758149,1.24285,1.51537,2.26195,2.69683,0.80589,1.83564,0.290489,0.391183,1.13137,2.98131,1.44646,1.26772,1.075,0.94614,2.3025,0.521525,1.36476,0.644105,1.8006,3.60793,1.39369,0.24282,0.584025,0.936387,2.85293,1.32242,1.05773,2.65452,4.50826,0.645241,1.18504,1.26445,3.81323,3.22976,2.33468,1.83214,3.34223,1.84716,0.390359,0.561513,2.05003,3.19738,0.347388,0.898493,2.01636,2.82182,2.61594,0.839208,1.4918,1.98131,3.12581,1.15539,0.673064,1.58411,1.12512,3.907,3.72319,0.435834,1.20136,2.19386,2.29297,1.9563,2.31407,1.17013,3.74011,5.78382,1.15206,1.78518,2.18942,1.75357,0.57258,1.03519,2.95305,0.884832,0.431999,0.704473,1.29394,0.866336,1.74012,3.55234,2.30113,0.389654,3.12471,1.45299,4.74904,1.03804,1.88687,0.450801,1.762,1.47549,1.65916,1.65169,3.45785,3.05006,1.35622,3.57577,4.43603,1.42756,1.86295,0.930738,2.52982,0.681313,2.05864,1.00524,1.50252,3.14271,0.754414,1.09854,0.718201,0.619857,1.46779,0.653678,2.28928,0.851161,2.15417,2.86935
school,0.235443,1.9986,5.18416,0.592063,1.07025,1.03108,0.0989291,0.396241,7.58727,0.66988,0.217735,0.151765,2.16299,1.44508,1.52573,5.92841,3.46513,0.24962,1.10405,1.62836,2.96353,0.923022,1.21602,2.21033,3.3901,0.056327,1.0155,1.06519,6.66697,0.668629,3.78895,1.03549,0.29217,0.0892565,1.55284,1.5161,0.863406,0.897766,0.172216,0.200304,4.4269,0.236914,3.05249,2.97002,4.4408,1.5155,0.450997,6.3283,1.91174,0.714055,2.11231,0.470851,3.30828,0.738417,0.142045,0.729699,0.334561,3.27876,0.128386,2.39729,0.599234,1.02255,0.622865,0.512048,0.152513,0.650821,1.73536,3.40108,0.364716,1.30981,2.75222,1.23532,0.378192,2.15276,0.130507,0.9874,0.402427,2.25127,1.09624,1.56506,2.50983,2.93948,0.449769,0.159041,0.907765,0.160771,0.691017,4.11841,0.611894,1.26661,4.25171,1.85947,0.581861,0.620206,0.0926448,1.97649,8.86429,0.29281,0.505126,3.30578,1.4886,3.0508,1.61878,0.148543,2.41945,2.74275,4.40623,1.01436,1.08162,0.242929,5.1308,2.03903,1.66246,0.520581,4.80788,1.14136,0.416433,0.146491,0.796376,3.26882,4.2072,0.430681,1.19991,4.76879,2.90117,0.10661,0.392449,0.112568
whisk,2.44021,0.998037,2.23916,2.1191,1.15674,2.08539,0.872328,0.743175,1.66344,1.66115,0.662967,2.08081,1.65259,3.82527,1.23347,0.584339,0.893765,0.78724,4.44855,1.92057,0.94385,1.69706,1.34915,2.89333,1.35185,3.3864,1.5506,1.30792,1.02422,2.5853,3.43938,1.28057,1.45014,1.25008,0.410083,1.98679,2.66367,0.107557,2.34134,1.07771,0.747347,3.91649,4.59257,0.302077,0.537624,1.90044,1.87081,1.9205,1.78065,2.7905,1.33417,0.653401,1.13726,2.16092,0.650106,0.642671,1.82241,2.03358,0.590624,0.259452,0.654212,2.45087,1.18292,3.67338,3.40724,4.67239,1.55612,4.10716,0.695589,1.25133,2.28142,1.01394,1.03391,0.516522,1.49402,1.86045,5.17727,3.60544,1.04424,2.32748,0.736166,1.99228,1.43496,2.0502,2.00927,1.56173,0.497858,0.484087,0.5315,2.97264,0.140018,1.4932,0.909515,1.62895,4.17276,1.65772,0.37448,3.08786,2.65543,0.607433,0.281467,2.49482,0.565041,2.01961,1.68153,2.29254,1.29316,1.02468,2.22291,1.16339,0.467711,1.28733,3.14437,0.739599,2.31573,0.722763,0.745354,3.90729,1.93294,1.68336,2.52041,1.42474,3.95952,1.73382,0.9155,2.05055,3.29404,4.66997
parrot,0.162912,0.395473,0.278054,0.426451,2.25278,1.47437,7.13792,0.187115,0.134623,0.61888,4.95353,0.303438,0.215912,3.41834,0.180207,3.40335,2.76942,7.21265,2.14305,0.412318,0.457077,9.16062,0.175978,6.94724,0.641042,1.05115,5.97442,10.4753,6.63246,0.128625,0.871695,3.9411,3.224,2.57119,0.136597,0.117497,0.368168,1.34578,1.61237,3.05812,2.66098,0.572724,0.294332,0.624865,0.276268,0.426574,2.88254,6.0414,5.70533,0.263273,0.876807,8.80236,3.53101,0.217452,2.29731,1.27152,2.49502,5.12771,0.483424,0.11405,4.33502,0.292563,2.43488,0.204844,2.02907,2.67001,1.83404,0.234826,1.22262,3.56035,2.61001,0.634139,0.309339,10.5632,5.65359,0.249442,2.18937,4.55153,0.09625,2.37071,6.17282,0.934727,6.23816,8.40292,0.85373,4.93689,11.0976,0.698509,1.39651,2.11371,0.491673,6.21129,2.40828,0.121962,1.17354,0.67176,4.83781,3.51183,7.94304,0.338272,4.88535,0.307876,1.23629,2.13204,0.248751,7.17531,2.41994,1.84059,2.1954,5.6346,0.198071,6.43327,1.59147,1.06627,6.62146,2.54136,0.750887,0.356654,0.701744,3.65821,6.40318,4.81449,0.600248,1.22811,5.81262,2.13929,0.931702,0.991617
satchel,6.74041,0.365654,7.85433,2.48972,4.7824,0.650964,0.49816,0.52339,5.20532,5.24843,1.74701,0.410223,2.20366,0.649812,2.32829,2.76636,0.130139,3.17049,0.625569,0.252622,0.410633,0.673075,1.58925,5.55472,0.51802,0.212439,4.95984,0.189151,0.23714,3.75753,0.641308,7.92802,5.58455,3.38487,0.476735,2.98072,5.76439,0.271074,1.38468,4.24636,1.57795,6.02726,2.7627,0.468998,0.847791,0.577566,1.36031,0.185192,4.6286,4.46744,0.342117,4.1092,3.59353,1.40345,1.20744,2.10267,1.55764,0.404468,0.454919,0.595381,0.298728,0.123868,0.567656,6.64131,0.537587,4.37805,1.62822,0.558731,8.55176,1.88794,0.45704,5.57578,3.24292,0.274439,1.84241,0.277296,3.08086,1.48075,0.210037,1.37795,6.64064,1.1352,2.7027,1.21179,0.455072,3.58579,0.412997,0.514147,3.35186,0.366525,1.74399,2.68735,4.96417,3.74033,1.10393,0.25706,0.423939,5.59369,2.88872,0.996994,5.11959,3.77266,0.357147,5.2397,2.37345,6.61565,3.08606,2.25154,3.93437,0.213153,7.89144,3.1975,0.986018,0.642659,1.11975,1.18506,6.93991,4.37759,0.382429,2.15213,1.18946,8.09948,0.393357,0.320007,1.90965,0.783035,4.04914,9.76844
piling,0.351185,1.47328,1.64396,1.10737,1.78317,0.587554,1.94587,0.913127,5.05574,2.87891,0.325342,0.736619,2.71857,0.710942,2.03402,4.56698,3.88632,0.845611,0.583302,0.564782,3.93512,1.44654,1.42362,1.34589,2.72567,0.695839,1.01297,1.93062,4.43391,0.520791,1.32418,2.13575,0.349001,0.0839728,1.36885,0.464295,1.87569,2.93341,1.09767,0.979105,2.24485,0.419569,4.99072,0.883587,3.64796,2.90103,1.40914,4.99729,0.29144,1.00841,0.859916,0.545632,1.53015,1.79771,0.418651,0.812285,1.56239,1.32908,0.649414,1.18132,1.01628,2.78494,1.71632,0.309175,0.608368,0.742114,1.44359,5.68695,1.38957,2.45032,1.48736,1.0587,1.37644,2.00231,0.537148,2.4816,1.00142,3.94348,2.99912,3.4671,3.27782,3.15582,1.48463,1.88623,2.76783,0.559415,0.24217,1.60749,1.56301,1.14826,1.35293,3.54051,1.96433,1.08195,0.993834,0.381142,6.78579,2.0741,2.18143,1.08083,1.03756,1.95968,3.21041,1.27285,1.62721,1.71822,3.16361,0.3674,0.278165,1.73526,2.4069,1.38277,1.42831,0.935508,2.67806,1.17201,0.85891,1.54062,1.73645,1.27519,1.05537,0.53548,0.968026,1.28571,0.874297,1.52522,2.3711,1.15052
roadblock,1.24129,2.4414,1.66639,0.269551,3.97995,1.84947,0.908343,0.731944,3.33856,1.99862,2.1244,0.629104,0.995998,1.17834,1.75797,3.18434,3.57851,1.17034,0.570917,0.487819,1.32615,1.43802,0.683684,0.81547,1.62758,0.361004,1.34705,0.630885,3.10731,0.431067,0.928521,1.10602,0.385266,0.207668,0.539617,0.702625,1.52211,1.33862,0.996516,1.63224,5.11901,1.01269,2.40818,1.66782,5.91603,1.77112,0.807682,2.66024,3.84102,0.567918,0.451878,0.378347,1.06774,1.04083,0.55486,0.410041,1.15727,0.954237,0.749767,1.50761,1.54461,1.58129,2.01901,2.01822,0.690401,1.2797,0.493925,2.21232,3.5656,1.01438,0.760394,2.65505,1.20547,1.98122,0.930125,1.54641,2.19075,6.32469,3.01646,1.20628,1.53514,3.56902,0.379505,1.65995,1.93937,0.241436,0.524335,1.3768,2.18115,0.540224,3.2339,2.72769,1.07739,0.378051,0.776223,0.822119,7.16275,0.634697,1.30079,1.19447,1.0256,0.474949,2.91834,0.627012,2.903,1.47137,1.6651,1.33437,1.82545,2.94777,2.556,1.44996,1.49469,0.704526,3.74915,0.887752,0.772209,0.988295,0.352313,0.898439,1.06386,0.278723,0.647195,2.0747,4.07985,0.344436,0.927765,1.03629
nursery,1.51974,0.961461,7.81505,0.737339,0.615414,6.43355,0.250899,0.265223,5.16431,4.49787,2.29324,0.0521217,0.463726,0.218613,0.416328,4.11651,0.312938,2.34366,0.104379,0.331494,5.18751,0.577792,0.141785,6.56355,0.280889,0.363419,4.56794,0.766761,3.39866,0.553696,9.21096,3.53719,3.3995,0.295132,0.171013,1.94279,0.158202,0.151916,3.16137,0.82052,0.156931,1.5359,0.337919,0.234965,3.43572,0.524849,0.155775,1.20965,0.470048,0.601098,0.353409,1.52825,7.59879,3.49315,1.5999,1.28451,0.673674,5.417,3.98065,0.843463,0.410275,0.95459,0.762256,4.06911,0.27859,2.36723,1.79912,3.72437,2.89932,0.867831,4.7919,0.639839,0.661341,0.115206,3.4955,0.206198,0.555769,1.42509,0.163183,1.72825,3.18078,0.169484,0.742214,0.244917,4.06949,4.94636,0.222564,1.71183,0.127554,0.4899,2.25725,3.62532,3.96998,0.179631,0.436791,1.50983,0.560589,0.0897493,3.18005,2.65005,0.464346,3.28689,0.125962,0.186803,0.497825,3.48962,3.05495,0.407564,7.14945,0.353453,0.612801,0.638857,0.873616,3.58594,3.81029,0.188031,0.161972,4.75644,0.576616,0.519587,2.67732,0.102148,2.4151,1.0079,3.00554,0.448081,3.92089,3.10292
cassock,5.66317,1.07006,7.1389,0.304866,0.751768,0.212347,0.179568,0.538241,4.081,0.41964,3.5997,3.32007,2.33303,0.337725,4.25781,2.10177,0.100367,2.79344,0.113287,0.370219,2.45757,1.74699,4.32616,5.89563,0.553718,1.05705,1.31479,0.892171,2.50009,2.15927,2.85453,0.70095,4.98133,1.72288,0.422991,4.00215,1.70911,0.254747,1.13361,1.44662,3.07161,5.67981,3.45457,3.25779,3.38531,0.464562,0.218987,0.847161,5.1161,0.207186,0.939951,3.65044,0.357909,0.157616,1.64473,1.81757,1.97437,0.395798,0.677923,2.42959,0.29041,0.269087,1.96597,0.760953,2.96237,0.280288,0.28591,3.7283,0.392463,3.87872,0.676064,1.58339,1.8238,2.78291,0.290226,0.439643,0.154466,0.502799,0.0786783,0.136941,0.526425,5.07639,1.02935,6.17111,0.381742,1.03089,0.622493,4.51926,1.5332,1.1091,1.3168,1.48306,0.37744,1.50764,0.193391,1.39463,0.51297,0.278687,0.250768,1.22639,0.78468,5.03366,2.88964,0.743167,0.384086,0.450792,4.53155,5.67813,0.268532,0.234379,1.21292,0.850635,1.33119,0.171641,2.20824,0.130613,4.11145,0.291506,1.49765,0.0554212,0.449916,2.19225,0.608055,1.67847,2.21337,2.81768,1.34533,7.00776
uplands,0.179518,0.334732,2.10082,0.472604,0.422421,0.600888,4.62143,2.76538,0.671536,4.1032,0.376325,0.25175,2.56688,0.915164,0.33872,3.91912,1.60859,0.274394,0.487957,1.27762,3.86662,0.205234,4.64337,1.00652,0.521887,0.563822,1.27867,0.548352,4.4486,0.660146,0.319222,0.772388,2.04803,0.103151,3.71822,0.0832507,2.08078,6.13644,0.401743,1.36755,3.04468,0.900644,1.22065,0.505907,5.34823,0.554446,3.64153,6.17095,1.96739,4.22897,5.59169,0.891595,0.474656,0.324449,0.100132,0.755329,3.28676,1.02606,0.644692,3.99379,0.689683,4.55446,0.239261,0.146384,3.15053,0.248311,1.36859,2.43071,0.47061,0.290558,0.132113,0.482715,0.10804,1.65467,0.2131,0.720619,2.37485,0.912241,5.82953,2.68443,0.70173,4.02956,0.461908,0.388775,0.248473,0.265521,0.741129,5.02578,4.226,1.17532,1.82502,0.50099,1.19098,1.40717,0.500367,2.89495,8.60024,0.897491,0.519366,6.36913,6.24232,0.522493,3.24112,0.474844,0.514257,0.808399,5.24605,3.27583,1.73807,2.42179,0.710415,3.40867,0.406899,0.838223,0.715534,0.423905,0.824783,0.114619,2.75748,3.55873,2.44665,1.57424,0.246375,1.21227,2.3296,1.43751,2.01276,0.0909771
settings,4.11436,1.7775,5.01614,4.027,0.867392,0.724517,0.823939,0.538118,1.12116,0.827869,0.765836,1.74034,1.34221,5.35887,2.25485,0.207199,1.80769,0.491246,3.99927,3.98408,0.342809,0.62308,2.91341,2.66571,4.19258,2.32929,1.37905,0.756601,0.55497,6.62151,1.06138,1.20626,0.640331,3.10492,1.40747,1.93296,3.00938,0.126507,3.86773,1.00568,1.69315,1.76032,5.40538,0.289007,0.346282,0.923329,1.03285,1.21468,2.0268,3.74965,1.3855,2.42469,0.768682,3.34889,1.15558,1.78275,0.786708,0.595403,0.146063,1.06143,0.483554,1.06258,0.500816,5.29247,3.45265,5.21652,3.28624,2.29435,2.1735,0.996904,1.25341,1.24186,2.07444,0.414698,1.24332,0.706961,6.06535,2.27487,0.711951,1.88825,1.1647,1.51573,3.14716,1.1182,0.794199,3.30267,0.55824,0.458137,2.52864,2.96852,0.0977504,0.295033,1.79318,2.93057,3.9157,0.333975,0.0983539,2.22021,2.07363,0.691177,0.742429,1.95868,1.57298,2.99279,2.13042,3.51869,1.34266,1.74192,2.6508,0.358657,2.0778,0.646605,3.28487,1.25495,2.33602,4.82253,0.401863,3.19954,1.49192,3.19349,1.22804,2.11901,3.79056,3.83217,1.50695,0.71832,2.38776,7.6591
clothes,2.92788,0.773606,6.4398,1.15654,0.783212,2.86998,1.27082,0.352079,3.98584,3.06463,3.53687,2.87351,3.71623,0.591569,1.11974,1.2098,0.0554135,1.42796,0.265638,1.80859,0.655292,1.96936,0.905514,4.77245,0.297115,0.479732,2.12754,1.21123,1.35966,1.50258,3.33479,2.86856,2.98424,2.86978,1.69763,0.716186,0.927002,1.11259,2.03489,2.39418,0.757092,5.40501,0.30018,2.2259,4.82092,1.04661,0.674915,0.833173,5.3662,0.488209,1.92818,2.00523,2.64099,1.4934,1.11268,0.435056,3.13068,0.252581,1.59531,1.91395,0.226447,0.205266,3.05048,2.29325,1.54202,2.38407,0.780791,3.75721,0.656308,1.04329,0.410971,1.63016,0.726528,1.1261,1.91808,1.35647,0.929292,1.11615,-0.226464,-0.0999612,1.42775,1.5245,2.09316,3.99651,0.714619,4.34124,2.40285,4.72741,3.33067,0.137239,0.146446,1.2844,0.17548,0.471788,-0.0171449,0.697712,0.686062,0.0920599,1.49454,1.87854,1.98404,4.71573,1.01713,2.93841,0.260025,1.70883,1.92939,3.75735,1.88876,1.5145,-0.0518487,0.708447,2.09978,0.426453,0.767954,0.288023,2.57742,0.355117,0.844218,0.0704676,0.889957,2.12949,1.01565,0.439277,1.02725,2.34913,1.82843,6.41402
snowsuits,4.56914,0.948896,5.23461,1.40045,1.17696,2.65913,1.87343,1.48292,0.807063,3.20413,3.58528,1.30265,2.40958,0.382567,0.63594,2.80418,0.365721,2.41116,0.311249,1.03307,0.994308,2.08167,1.0537,2.58185,0.644129,0.553533,4.69351,0.571077,2.54623,2.11554,0.853152,1.57769,2.01187,2.09116,0.68573,0.440541,2.17669,2.43953,1.96595,2.99277,2.85701,3.59108,0.551659,0.289812,2.74056,0.580653,1.84139,0.685624,3.663,0.308223,0.517564,0.977297,1.9998,2.16975,2.30479,0.344589,2.10847,0.609696,5.28791,0.939313,1.36477,0.133877,1.39362,3.05434,2.6692,1.78546,1.64192,1.24017,1.53574,1.35679,0.406745,0.909001,0.318147,1.22068,2.6519,1.40683,2.05305,1.60079,0.399047,0.620449,0.713464,1.97839,2.06128,2.72015,1.26286,3.07453,0.585292,1.83326,1.71112,0.326061,1.65001,0.748852,0.887744,0.458315,0.17479,1.42976,1.68119,1.0589,0.29957,0.75464,1.3947,2.00559,2.41243,1.05776,0.39726,1.52691,1.62893,4.70641,2.49987,1.39944,1.32008,0.301375,1.98366,1.67916,3.10068,0.36669,1.67447,0.996225,1.04923,0.46975,0.591107,0.88514,2.00571,0.463897,2.18632,1.51534,3.0651,4.57452
farmhouse,0.057172,0.131908,4.28568,0.768174,0.436015,0.715896,0.836004,1.52104,6.34114,1.47217,0.114385,0.164641,2.80707,0.746709,0.497855,8.96447,1.15619,0.0311992,3.22341,0.95292,4.3224,0.141885,0.711558,0.612734,1.98898,0.0562259,2.19056,1.11443,8.3342,0.810556,2.67075,2.5278,1.15629,0.0357763,1.08053,0.0937543,3.33128,2.74062,0.252539,0.211951,7.7862,0.127917,3.85454,2.09244,1.29158,2.27037,2.29009,7.9884,2.07325,1.1778,3.83597,0.429533,4.87433,0.739816,0.112843,2.58899,0.395059,1.2607,0.286893,3.22892,0.265995,2.63158,0.533359,0.0836507,0.260244,0.161515,0.630796,5.53664,0.713184,0.196624,1.12989,2.75805,0.0869921,2.37405,0.0982699,0.586758,0.739524,0.914691,2.44567,2.22346,3.33343,2.96187,1.06196,0.165142,1.89723,0.199162,0.522525,6.17313,0.919135,0.61479,5.47543,1.44959,0.288767,0.37609,0.377105,2.63036,9.81408,1.53281,0.374292,3.87696,5.45584,2.12831,2.91343,0.552557,0.886488,1.69185,7.16275,0.909833,0.727898,0.298258,3.64436,3.86311,0.939096,0.31999,2.07523,1.29057,0.279882,0.0916805,0.448812,3.74125,6.04663,1.54688,1.07065,5.58259,1.81904,0.0626527,0.259879,0.0420126
bicycle,6.07005,2.47847,1.01694,0.0329092,1.4855,2.42524,3.79429,0.516378,2.6468,0.799062,5.84818,0.980642,0.933358,4.17002,0.29744,0.790179,0.489443,0.49481,0.138003,0.963905,0.0827138,1.41316,1.46869,0.789918,2.87548,0.571737,1.38016,-0.0486983,0.253505,0.640018,0.809383,3.07838,0.312453,0.875486,1.61393,0.280611,7.33324,1.00942,1.04355,5.32185,5.35916,0.433777,0.646176,0.345655,4.32449,4.21581,2.49275,5.66357,3.85897,1.50014,0.270313,0.267224,1.01804,4.93881,0.136255,0.327048,4.59464,0.391739,0.98447,0.778381,0.440035,1.19491,1.47119,0.0155552,1.57069,3.74321,0.759874,6.29681,1.37914,0.402512,1.32392,0.69589,1.11433,4.95891,0.572171,1.34152,5.65795,6.55099,0.585983,-0.137022,3.30415,2.85888,0.557028,1.35893,0.4392,0.375214,1.21055,0.577333,3.0295,0.532797,0.184261,4.38219,0.153122,0.496442,1.14946,0.319519,6.34522,1.40666,1.34243,0.0227038,1.54772,1.77174,2.68346,0.416526,1.05795,4.84416,0.230357,4.54013,7.88605,1.97706,0.16169,1.21044,4.19842,0.211776,1.22732,0.774787,0.435972,1.5855,1.09225,1.77224,0.335298,0.723565,0.753397,0.825239,5.36992,1.0973,1.66239,0.612692
daybed,0.735336,0.553059,8.26037,3.35756,1.50734,7.17339,0.285282,1.26191,5.05943,6.7953,3.06454,0.190692,1.62331,0.28455,3.49992,4.20913,0.186787,1.4129,0.15386,0.130222,7.2597,1.98693,2.15286,7.51427,1.49717,0.462939,4.77939,0.297754,2.04646,0.616273,8.78385,4.70267,3.69183,0.811608,1.84698,3.81622,2.84132,0.348878,1.83643,0.211353,0.226721,1.40989,0.53937,0.191372,6.82776,0.346938,0.167533,0.385361,0.795731,0.48275,1.28752,4.24314,8.62598,5.13473,1.89513,1.20567,0.226435,5.07109,5.72224,3.65137,0.41501,2.57761,0.210011,3.58697,0.0491883,0.376963,0.404396,3.56967,1.10745,2.26063,3.92972,1.9928,4.85273,0.170756,5.19018,0.275783,0.31101,0.780747,0.173188,0.374125,6.25208,0.102054,0.2483,0.255557,2.44354,5.9291,0.13571,2.82786,0.192328,0.400737,5.30842,1.06663,4.32261,0.242434,0.361044,4.66344,0.902421,0.181021,1.18199,5.54606,0.760759,1.38792,0.141182,0.166422,2.04267,3.91461,7.20398,0.327281,7.38694,0.559561,0.668523,0.295342,0.345462,5.92838,1.55055,0.747656,0.250329,4.78711,0.205617,0.411482,3.87782,0.510484,0.605612,1.23582,1.4893,0.438415,3.97471,6.63529
quilt,1.89718,0.371516,8.17667,6.30459,0.725693,6.73876,0.473662,0.598609,1.48682,6.28148,5.03682,0.121193,4.40056,0.125613,0.677726,4.33946,0.110662,0.351762,-0.0249851,0.102045,7.83335,0.597642,0.392445,7.40362,0.819436,0.350076,6.7134,0.169561,2.46546,0.380968,7.12688,2.8657,4.90326,4.93999,2.8527,2.72638,2.99843,0.274503,0.673546,0.581565,0.172693,2.79442,0.402546,0.138969,6.84975,0.229763,0.472661,0.181025,1.54526,0.272053,3.63589,4.24063,9.29368,2.84878,1.06909,0.358728,0.383643,2.5337,5.11167,5.47688,0.213015,3.55609,0.36048,4.72905,0.237081,0.486944,0.257429,0.902727,0.517625,3.02039,4.64211,0.94984,2.99181,-0.0213094,6.07497,0.797148,0.280758,0.242881,0.245387,0.309545,4.44455,0.212199,1.80815,0.263804,1.00604,6.90006,0.27142,1.9795,0.179627,0.180261,7.0432,0.605032,3.28924,0.264125,0.168955,5.68451,1.38966,0.0293382,0.765734,5.16037,3.64095,0.553092,0.314251,0.103959,0.425475,5.20072,8.23717,0.547267,7.17086,0.818022,0.162729,0.555707,0.28602,6.87604,2.70017,1.21633,0.605729,0.607911,0.0839592,0.233427,6.91703,0.503602,0.550664,1.18646,4.57149,1.14138,1.79318,5.60629
widow,2.97523,1.32155,4.69049,1.04211,1.14239,1.32134,0.830204,0.530693,1.69923,0.688645,1.91719,2.38901,1.19336,0.986998,1.77503,1.49338,0.545406,1.70151,0.380679,1.08108,0.744871,2.56755,2.08281,2.66273,0.795815,1.03303,1.44378,1.2901,2.19778,2.19178,1.67415,0.928647,1.8621,1.32543,1.32938,1.97434,0.976011,0.797959,2.37547,1.63639,1.39561,2.81252,1.51902,1.97814,3.14927,1.57142,1.01127,1.01003,3.78436,0.586001,0.963455,1.17233,1.12842,1.60097,1.29472,0.995615,2.09018,1.15885,1.74642,0.94103,0.70268,0.415154,2.33998,2.41867,3.01083,1.33697,1.55046,2.17737,0.39601,2.17551,0.957434,0.871297,1.04487,2.23979,2.00395,1.32288,0.758968,1.45624,0.330275,0.556276,0.592155,1.54876,1.46624,2.64778,0.574274,2.36411,0.72488,3.70349,1.35751,1.01297,0.968698,1.47208,0.815476,0.784697,0.218702,0.974686,0.977507,0.862826,0.374277,1.12203,0.672074,3.12299,1.87993,1.13561,0.736481,1.50058,0.891328,4.13648,0.711014,0.821611,0.808131,0.843571,1.24608,0.862352,1.75981,0.670742,1.38462,0.560968,0.949143,0.814412,0.867094,1.1384,1.34503,0.75804,1.618,2.89395,1.58179,4.42904
phones,9.21774,4.1958,1.57421,0.413579,0.636767,1.09318,0.855901,0.974271,1.76325,0.191657,0.720173,0.934635,0.469577,7.54123,1.91881,0.647832,3.29729,1.32456,1.40998,2.14495,1.13469,1.63797,2.32533,3.98011,0.924194,0.126864,1.08861,1.59094,2.07903,5.32108,1.20703,1.62499,0.320152,0.74204,0.874887,7.1651,6.88693,0.0797848,4.8294,1.41414,1.39559,0.709739,1.81579,0.476598,0.691804,1.89832,0.513586,0.364745,0.842031,0.813406,1.11499,3.35611,0.763228,1.28915,0.826845,5.41348,1.26999,0.583754,0.46744,1.84671,2.8608,0.381231,0.614417,3.98341,0.749851,6.43337,0.421475,1.11132,6.25538,2.88706,3.41618,4.46514,3.62537,0.975562,0.955134,1.80514,2.00882,9.2653,0.556091,2.79344,1.29892,0.558622,3.35717,1.26369,0.975972,1.60452,0.181121,3.33791,0.486578,0.583684,0.414262,2.48496,1.71565,3.03041,1.17709,3.41103,0.759493,2.06908,3.09165,5.39608,0.692499,1.39201,0.355352,1.78787,4.42995,0.351317,0.665817,0.972323,5.41565,1.47404,3.70085,6.78307,5.37403,1.9278,1.40436,0.770192,1.42809,0.340758,0.652397,0.931878,0.389713,5.00332,2.17245,1.44178,3.24845,2.80769,0.779414,5.75533
snowflakes,0.122294,0.304996,-0.0111698,0.247596,0.174018,0.592916,2.80278,4.02626,0.0493836,2.50269,2.29374,1.44247,0.856863,0.368383,0.649232,1.55764,0.371952,0.950386,0.912286,6.28657,1.02525,9.35991,0.712398,1.25418,6.66337,5.35399,0.15461,6.21591,3.20155,4.47165,1.15322,1.14854,0.795615,1.71366,0.514027,1.79267,0.352314,3.41264,0.525655,1.70148,0.431353,0.324699,0.25753,2.99258,0.0799501,1.79645,0.171991,0.965673,0.881525,0.130646,9.67659,3.94137,0.913109,2.39226,4.96497,1.50729,1.09406,3.19635,0.939902,3.05709,0.385439,0.290735,0.833073,0.166028,1.05429,0.637384,5.75495,0.282118,2.70551,3.53784,4.46044,3.13075,0.768564,3.31569,1.30826,1.79081,0.547043,1.43828,2.00461,2.64946,0.348627,8.91887,0.408597,1.70275,4.13696,0.252183,9.2312,1.00712,1.28659,2.7249,0.682911,2.87594,0.491232,2.76417,10.9761,4.15786,1.08722,0.333123,9.06478,2.6207,5.87389,0.384915,1.14603,0.491953,0.453322,0.783608,7.15436,0.0308605,0.434268,3.64911,0.20435,0.852938,2.65225,0.261797,0.444591,6.93719,3.03777,8.09808,4.86238,6.84646,0.496929,3.48615,4.95877,1.81005,0.391868,1.60953,1.14067,0.0277049
horn,4.86331,0.557055,3.60773,1.02251,1.02215,1.21367,1.23077,0.533791,4.51219,0.573608,0.339453,2.95405,0.793748,7.31982,1.63577,0.648401,0.596627,1.6524,2.69095,0.901689,0.089492,1.58098,1.90077,2.84196,2.88796,1.62241,0.472217,0.668429,0.374974,5.17929,1.34959,1.19513,0.0878198,2.46846,0.854475,3.51315,3.37948,0.470384,3.35278,0.946937,1.4093,1.55788,6.74661,2.53402,2.64091,4.88591,0.315716,4.55804,3.3055,3.00129,2.06978,1.36289,0.871005,3.99839,0.762691,0.806954,0.806202,0.0677788,1.30855,0.0797994,0.95776,2.31586,2.75251,4.21057,5.04507,2.96353,3.50671,4.12586,1.33627,0.681199,3.2412,2.20245,2.41233,1.03198,1.60264,0.719532,4.91923,2.66133,-0.112971,0.778651,0.752756,3.95553,1.76504,2.34125,2.33048,1.41181,0.261601,2.58242,1.65336,4.34621,0.612822,2.97648,3.39817,2.17366,1.31794,1.70738,0.85025,1.38827,0.952769,0.287712,-0.185498,4.33214,0.767768,3.56096,2.14965,2.20805,1.04989,3.10379,0.8046,0.314325,1.1471,0.00453761,4.59592,0.507385,0.715529,4.4731,3.49001,3.62534,1.36723,2.36306,1.1243,1.35853,1.75813,6.1472,1.75871,2.93713,2.27777,5.27902
nail,2.48739,0.352397,2.71192,5.67049,0.482207,0.760376,3.502,2.36795,3.71402,3.79898,0.200791,0.540356,1.95395,1.25232,1.07363,0.935157,3.49729,0.420365,2.61839,1.16959,3.42086,1.01262,0.731862,1.34151,2.96283,3.23654,1.07785,2.86566,1.01801,0.961477,2.056,0.487699,1.10949,0.839289,1.52787,2.44499,2.5659,0.0973955,4.35146,0.620063,1.62503,0.814343,6.19607,0.290372,0.503007,5.10021,1.554,2.16162,0.667841,1.50426,0.482345,0.657901,0.908007,0.910154,2.06361,1.06945,2.01194,1.02627,0.502306,0.533974,0.392649,1.37233,0.343557,1.4859,1.48665,3.09575,1.40154,5.16535,0.55773,2.70287,0.559602,1.48811,1.4089,1.70812,0.982405,1.32021,3.1387,1.78445,0.525703,3.17256,2.39077,3.05215,1.36995,1.67858,3.13176,1.00107,0.931881,0.61412,1.68422,0.776331,0.0601274,0.674132,0.177533,2.03254,4.90233,0.528982,1.16004,3.25567,4.5947,0.730766,1.01251,1.07132,3.71699,2.86918,1.19142,2.26559,3.13837,0.239839,0.97603,2.34754,0.972857,3.18691,4.43343,0.768231,0.785942,3.40887,0.675722,4.83825,0.192097,2.44505,1.60978,2.23659,3.20098,4.65101,0.713369,0.49953,5.25595,4.32563
bannister,0.687696,2.14568,2.53066,0.467607,1.35754,2.66893,0.879943,0.658769,5.46044,2.78452,0.705463,1.04364,1.63671,1.67127,0.896131,3.90108,2.74047,1.62851,0.530973,0.413504,3.18974,0.84581,0.822071,3.53993,2.10324,0.363161,0.837135,0.732386,3.2165,0.232682,4.4692,2.90876,0.942496,0.179503,0.273105,2.82929,1.40277,0.788966,2.04414,0.640216,2.23447,0.775376,3.61976,0.918367,2.69424,2.04827,0.760979,4.1696,1.14835,2.36472,0.62413,0.611061,2.84655,1.77295,0.361703,0.413509,0.673584,2.22494,0.966784,0.423522,0.686552,3.50234,1.0277,1.00775,1.08937,1.65172,2.30826,5.05364,0.757827,2.1715,3.12859,0.894725,0.48965,1.50351,0.842326,1.84662,1.45929,4.49415,0.793255,1.38723,4.47052,1.22331,0.394857,0.960352,3.4576,0.738016,0.289775,1.99074,1.16258,0.742312,0.623149,3.54079,1.65334,0.919781,0.900927,0.788849,5.33637,0.652413,3.94793,2.42825,0.540403,2.33011,0.90038,0.419364,0.482916,1.31695,4.54455,0.457329,3.62685,1.42041,0.860025,0.962202,2.82768,1.7387,3.49978,0.490597,0.915416,3.25158,0.49734,1.09295,1.34319,0.570536,0.966177,2.17106,2.60656,0.965425,4.16108,1.33119
gator,0.452637,3.4288,0.642115,5.34246,2.9518,0.714792,5.90139,1.04636,0.571413,0.685365,0.377727,0.472218,3.56101,0.238955,1.07999,1.81323,2.50573,2.65528,0.518072,0.62711,5.13309,0.366121,1.156,4.11759,3.04617,5.57197,1.97347,0.67886,3.4254,0.695164,1.1549,0.87634,0.384258,6.19639,5.90407,0.631065,0.41411,5.16489,0.751866,0.697741,0.705902,0.552183,0.244836,1.00706,3.37117,0.867069,4.14242,1.15902,0.250099,0.571618,0.699506,0.623507,0.242216,0.706165,0.667412,3.76371,3.1061,0.83336,2.76766,1.4105,1.54641,3.57653,0.902362,2.20985,0.950857,0.175867,4.44798,2.79928,0.348715,0.745436,1.2818,1.45538,3.20987,3.16844,1.97124,1.22539,0.394904,0.251138,3.71187,3.01553,1.03756,3.12087,5.38192,1.76011,0.267086,3.74395,6.54501,2.18172,3.97844,1.03457,3.11555,0.565112,3.16811,4.07434,6.9998,3.43106,3.33065,0.555508,3.75332,1.10009,4.87459,0.518766,0.95164,1.00986,0.564886,0.660775,0.646842,0.820625,0.400657,1.16388,0.537009,0.737533,4.04522,2.32288,0.120527,4.07855,3.56689,0.840652,4.51947,1.53512,0.369172,2.3334,0.441391,2.8166,0.979855,1.75029,0.828237,0.44699
street,1.33118,3.50728,3.70584,-0.502677,2.28544,0.677697,1.15934,0.488198,6.35985,0.193282,2.08188,-0.445452,1.6289,1.16049,0.616434,2.88472,4.87299,0.0130949,-0.397928,0.169714,3.8932,0.867517,1.52305,1.33189,2.20201,-0.212675,0.691304,1.45608,4.26952,-0.130703,2.39991,1.53287,0.873037,0.0135429,0.880165,2.08551,0.813236,1.95576,0.00394895,0.411998,5.80671,0.45816,3.2169,2.25789,7.13365,0.857708,0.78894,4.87909,2.50667,1.02859,-0.237317,-0.394217,0.946911,1.47798,0.670929,-0.836876,1.21423,1.21012,-0.0456811,2.26696,1.04146,2.69157,2.66973,0.781331,-0.353091,-0.118988,1.10653,3.28844,1.8329,0.973588,3.02758,2.24654,0.191852,2.63134,1.47158,2.55353,1.52963,4.60448,2.5835,2.58262,2.52608,2.19524,0.158138,0.166876,0.298586,0.402215,1.12179,2.40104,1.31183,1.33652,3.69312,1.45787,1.66912,1.29471,0.932398,0.568227,8.6931,-0.370862,1.29518,1.99115,1.71773,2.56141,2.88947,0.136987,1.23326,2.92941,3.23365,2.76054,0.96414,1.91284,3.38188,1.36075,1.685,0.971401,5.77187,0.380859,0.229878,0.458691,0.53905,1.88847,2.01755,0.061237,0.444399,1.06174,5.80144,0.93193,1.13064,0.899294
parapets,0.333635,0.942921,3.46246,1.21917,1.14991,1.54552,1.00365,0.968675,5.70555,2.34773,0.371348,0.50582,3.2544,1.36096,1.89954,5.11215,2.58065,0.835301,0.489792,1.31167,3.76828,0.72167,1.72885,2.77982,3.38514,0.378739,1.06016,1.21072,5.74812,0.730535,3.03941,2.4496,0.651174,0.187882,1.69092,1.13582,1.54451,1.54396,0.88317,0.669002,2.40827,0.599079,3.17962,1.76876,3.73811,1.51051,1.14418,4.20814,0.586054,1.64081,1.85486,0.553973,2.58071,1.77431,0.311725,0.711505,1.07929,2.3991,0.722311,1.72098,0.782109,2.95285,0.670996,0.646657,0.343578,1.02867,1.80304,4.14504,0.85904,1.68907,2.29997,0.860669,0.75955,1.45919,0.754545,1.40176,0.688416,2.87139,1.73461,2.8764,4.49258,2.2476,0.330673,0.555035,2.22667,0.485167,0.294764,3.03701,2.06267,1.05775,1.71579,1.82204,1.07572,2.14155,0.442626,0.526614,6.33992,0.391688,2.31795,3.2547,1.58001,2.08009,2.92496,0.534132,0.802794,2.34784,5.31652,0.915217,1.63275,1.02572,3.6366,1.69645,1.41376,1.29084,2.78314,1.05166,0.577673,1.5418,1.01846,1.50813,1.28423,0.691819,0.794014,2.45071,1.599,0.741506,2.20672,0.627316
tether,2.41647,2.20444,1.53911,1.51967,1.71603,0.819476,0.663055,3.12829,1.40268,3.03875,4.96913,1.67975,0.711453,2.18553,0.54093,1.37945,1.39901,1.65409,0.927974,1.38602,1.48121,1.63501,1.89479,1.19028,1.27372,0.848102,1.97131,0.863496,0.913348,2.20939,1.0949,1.84058,2.49361,1.43318,1.05558,1.53486,2.41865,3.25526,3.47109,3.48294,1.93557,1.6281,1.50835,1.21658,1.6972,1.47012,1.15944,1.2199,2.19863,2.03714,2.03899,1.78965,3.75818,2.45688,2.12529,0.872805,1.78103,0.992148,4.98867,0.777585,2.40476,0.784823,1.10144,1.47334,1.95086,2.635,1.87574,1.51733,1.76825,2.07027,0.829672,1.26343,0.736082,2.415,1.66116,4.43709,1.59014,1.47601,0.602859,0.889691,1.43569,0.780726,1.96233,1.51848,2.4159,2.10084,1.03001,1.3111,1.68228,1.26206,4.00358,1.46107,1.97191,0.59479,1.30975,1.68135,1.64784,1.35038,1.08308,1.53233,2.09343,1.60726,1.84162,1.68387,1.22065,2.15202,1.09537,2.13998,3.70382,1.88951,1.55782,0.883697,2.42075,1.97647,1.81939,0.912948,1.48297,1.64749,1.45909,1.80929,1.7671,1.68606,1.99751,1.99417,2.07437,2.77357,2.76093,2.1636
pickup,1.86407,0.752958,0.738953,0.0909977,9.75652,6.336,0.182269,0.656255,3.33511,2.20381,1.04485,3.78377,0.392267,0.557484,0.16743,1.12586,2.73547,0.188204,0.395936,-0.0198597,0.245374,0.201982,0.229691,0.0130548,3.7617,0.780283,0.1498,-0.00899843,0.3578,-0.051441,0.11133,6.35797,1.7357,0.135297,0.321102,0.416894,0.811431,0.132669,3.67412,0.15724,10.6153,0.0977819,0.951068,5.69003,1.38572,1.25114,0.113897,0.468155,6.95671,0.801335,3.53227,0.183245,0.0608796,0.626686,4.083,4.18976,-0.0183404,1.39075,0.19916,5.59506,1.65131,2.78386,0.744939,0.602405,0.0272849,-0.0303013,0.142265,3.4494,10.9494,0.119201,0.077406,6.9503,8.19263,0.656307,1.58515,1.19656,0.828217,8.4448,5.27023,2.34801,0.106161,5.98281,-0.0642305,0.0963246,0.242623,0.127211,0.295138,0.262672,8.66227,0.0149414,9.70149,1.39967,6.01918,0.175451,1.46795,0.163459,10.822,0.00836424,0.0716023,5.57874,0.655174,0.225709,0.513177,4.08119,10.6216,0.125247,3.46097,0.767056,5.57933,1.14994,0.257165,2.64909,0.976556,5.47523,4.11105,0.67299,0.488164,3.03968,0.165297,3.0119,0.133869,0.616132,0.159014,1.45526,8.26035,0.124928,2.95523,0.138372
panda,0.428496,10.3121,1.00941,0.112988,0.391769,6.21165,0.489432,5.19192,1.0639,1.13529,7.07303,6.20811,0.209399,0.0687432,2.8734,0.380657,0.175725,9.07604,3.45075,0.250132,0.350679,0.825664,5.23237,0.134186,0.0859751,0.13108,0.54442,10.5077,0.088675,0.186821,0.0124704,5.33115,0.990449,5.64665,0.402566,4.23274,0.0685765,7.89106,0.522932,5.78358,6.68329,0.0658773,0.0584055,0.575439,0.349511,0.403142,0.169068,9.31446,0.063591,0.47788,5.49071,8.32462,7.00452,0.210039,4.56184,0.0813966,0.876855,2.81422,9.37382,0.273054,0.393595,1.042,1.16393,0.191982,0.811599,0.623977,0.472399,0.610287,8.63067,8.01068,6.69305,0.900087,8.28611,12.34,4.94106,0.340578,10.0615,0.20867,0.32826,0.395633,11.6813,0.663133,0.294236,0.567309,0.802064,0.10071,0.169029,7.8294,0.895764,0.723233,8.46891,0.271909,0.844149,6.63977,0.303381,0.541367,10.4551,7.42859,1.21537,5.56707,0.203506,7.20129,3.71341,4.44667,0.173977,0.247757,0.683249,0.255853,0.165274,0.380243,0.656837,9.72916,0.340019,12.2891,0.303755,5.59067,0.179749,0.120159,0.285618,0.356835,0.383769,1.77868,6.22971,7.68676,7.62522,0.225232,0.57923,0.0210961
machines,5.30631,2.50484,3.00619,0.886877,3.1169,3.24032,1.68579,1.15384,3.26207,0.742998,0.758185,1.69593,0.526981,3.61505,1.45987,1.33109,2.5255,3.69882,0.999,1.70655,2.07519,0.961374,0.832479,1.60522,1.2007,0.615507,1.26973,1.12417,2.67433,1.23719,2.25688,2.44032,0.697676,0.335802,1.62806,4.02374,2.71464,0.366802,1.49357,1.71119,2.94487,1.13677,2.55046,2.63996,3.14463,3.7287,0.424469,1.1278,2.60535,0.600238,1.23497,2.32414,1.59101,2.05377,1.19036,3.56259,1.82666,2.07423,0.35847,1.60839,1.71348,1.38232,1.84491,3.55449,0.306021,2.68936,0.67694,3.23431,5.68899,1.02036,4.26882,2.83945,3.74125,0.973893,1.00774,1.65005,1.86098,8.0183,2.53965,1.64337,1.23607,2.30526,1.34567,1.43733,2.8808,1.29612,0.382887,1.72293,2.25865,1.10613,2.09106,2.7221,2.7553,1.28023,1.55655,1.32933,3.10557,0.960684,0.954969,3.07248,1.40638,1.24234,0.496374,1.4705,4.63224,1.67128,1.92596,0.997703,3.82585,1.58552,2.89186,3.26372,1.99343,2.87562,2.11909,1.13206,1.53455,1.16282,0.838531,1.06305,0.267026,1.31118,1.63646,0.866003,3.40331,1.5773,0.751856,2.4911
monster,2.6381,1.54796,2.81375,2.08464,0.745919,1.92155,1.8418,1.09035,1.19241,1.54904,2.38046,2.4948,1.00636,1.81834,1.53297,0.983705,1.40181,1.85706,0.911288,1.87931,0.8973,2.54182,1.83306,1.58929,0.881099,1.62323,2.29786,2.10293,1.6094,2.28135,1.26047,1.17884,1.18291,1.88622,2.08239,1.78815,0.729095,1.61716,2.44247,1.45821,0.823651,2.36788,1.6946,2.33458,2.75447,2.38627,1.22826,1.14915,2.96919,1.50917,1.22096,1.554,1.53829,2.27123,1.76062,1.39914,1.37445,1.67153,2.98032,0.929536,1.37464,0.592757,2.47455,3.28363,2.98085,1.85833,2.67831,1.32345,1.09244,2.36613,1.7115,0.669376,1.26859,1.83229,3.04768,1.73299,1.14416,1.23527,0.77285,1.26858,0.880745,1.67602,2.28264,1.70738,1.0345,2.59485,1.47395,2.55823,1.31165,1.95384,1.53876,1.33004,1.05622,1.16945,0.603489,0.999545,0.670957,1.6786,0.641009,0.996688,0.671515,2.06226,1.09801,1.81418,0.621252,2.06844,0.37306,2.61185,0.87426,1.02633,1.04125,0.78793,1.56738,2.3469,1.40617,1.39224,1.40813,1.20505,1.13075,1.75726,1.3053,1.20503,0.916348,1.31549,1.6361,2.34994,1.75082,3.1792
blouse,5.21843,0.587318,8.41241,1.757,0.688571,1.8538,0.820067,0.0979915,2.97576,3.34431,3.04862,2.6394,5.26108,0.406856,1.63649,2.36431,-0.129812,2.01652,0.12029,1.6378,1.35414,2.12265,1.58364,6.52567,0.153686,1.13289,2.81839,0.297184,1.74308,2.74101,2.3138,1.9075,4.81837,4.75215,1.35011,0.644647,0.713775,0.311967,1.18212,2.67949,0.930453,7.67192,0.315911,1.98723,2.25784,0.664515,0.6423,0.478907,5.24514,0.437702,1.15636,1.54577,2.54594,0.739438,1.81094,1.0631,3.94547,0.189121,1.31727,1.58771,0.196681,0.0976819,1.20275,3.41885,2.13713,1.43368,0.631464,3.7892,0.926768,1.58643,0.320995,3.57442,0.731601,0.963181,1.25504,0.762258,0.769498,0.621719,-0.127294,-0.195496,0.420865,1.69807,3.2864,5.52096,0.279931,3.53012,2.64131,5.14289,2.78144,0.230849,0.648108,1.24305,0.0525814,0.55977,0.0425592,0.780603,0.0286471,-0.0463023,0.921024,0.970998,2.82452,5.34761,1.11387,2.8599,0.0471338,1.57967,2.30817,5.37456,1.26354,0.594778,0.904191,0.714229,2.38485,0.710751,2.14597,0.344747,3.1601,-0.0312661,0.964918,-0.123341,0.834617,3.32479,1.89213,0.321354,1.24719,1.46721,1.86076,8.41426
christ,0.832997,1.04821,3.35695,1.31137,1.26095,1.05335,1.06591,1.17742,3.02258,1.69167,0.812033,1.8645,1.86505,2.02024,0.615045,3.60875,0.916766,0.99307,0.543569,3.05633,1.29362,2.13062,0.832641,2.44097,2.16631,1.08574,1.5011,1.72712,2.50974,1.55329,3.46838,0.777745,1.39334,0.94913,1.05274,1.16421,0.637278,2.40724,1.7791,1.05911,1.00515,1.70839,3.50148,2.75684,4.17905,2.43818,0.579094,2.39753,2.35361,1.30691,1.47209,1.93774,1.5606,1.48083,0.969199,0.989275,2.82059,1.21834,1.11177,2.61562,0.832959,0.773722,2.25802,1.83352,2.89118,1.55152,1.1352,2.494,0.659733,2.87881,2.01797,0.994864,0.741977,1.8143,1.7025,0.57568,1.58042,1.09043,0.703225,0.349788,0.943993,3.01152,1.67014,2.1566,1.43845,2.19232,1.33399,2.16048,2.14256,1.72047,1.16118,1.29068,0.729788,0.777213,0.623374,1.1152,2.71875,0.771869,1.72145,2.36483,1.07782,2.4477,0.716797,1.67534,0.711548,2.22412,2.76208,2.05255,0.906223,1.70589,1.12554,0.767766,1.56319,0.783882,1.17874,0.61859,1.21028,0.490233,0.595037,1.11305,1.92301,0.572939,0.607712,1.86237,1.56381,1.20817,0.635769,2.89707
fingers,4.98072,2.33702,3.47616,3.3451,2.89721,1.03223,2.38219,0.519809,0.973559,1.52338,3.17616,0.946932,3.36998,0.991476,1.62096,0.715001,0.908971,1.22268,2.61409,0.784428,0.521794,1.43219,1.23364,4.1563,2.01205,1.13576,4.2272,1.75056,0.705755,2.88534,0.791527,2.71954,1.82996,2.97074,2.67893,1.83875,2.85524,1.14481,4.06949,2.8358,1.08874,4.37054,2.43665,0.649731,1.70529,1.11601,2.62211,1.16503,3.45498,0.717831,0.787299,1.87092,1.91401,0.938931,2.23982,2.30294,1.23782,0.584215,2.49634,0.202152,0.336042,0.11908,0.333464,4.52249,2.33947,3.26265,1.02012,1.27571,2.05618,2.75156,0.476414,1.15683,1.90044,0.839673,0.748367,1.53599,1.17739,2.13262,0.0718544,0.958309,0.844143,1.9196,2.43985,3.70899,1.25382,3.2488,0.468512,1.99337,2.4444,0.929365,1.60572,1.89345,0.756473,2.15567,1.22849,0.87283,0.309719,1.80541,0.449552,1.09292,0.415031,1.32872,1.40639,2.17101,1.36187,2.84427,1.83723,1.96281,1.11743,1.30262,1.66456,0.936169,4.19363,1.16054,1.60433,1.21761,1.61871,0.631359,0.352891,1.00269,1.1094,2.29005,1.98849,2.78401,0.629516,1.62058,5.20132,6.01428
lampshade,0.554855,1.23686,4.28306,2.10716,0.59659,4.99929,0.832236,1.66296,3.20872,0.752607,0.468788,0.641705,5.4332,5.16221,0.384216,0.571596,1.85846,0.218446,3.37444,4.29019,4.16227,4.70618,0.29594,5.78111,0.454964,2.16168,4.38854,0.479904,0.602429,3.16633,6.14657,0.965618,2.02267,0.887736,0.506374,3.68007,0.259195,0.315176,0.63559,0.198457,0.45507,5.44086,5.76826,0.283756,5.90062,0.504578,0.496977,4.95551,3.48364,1.85312,4.67164,5.08633,4.86799,2.26612,1.56815,3.99839,3.95443,0.747008,0.138926,0.647582,0.38247,1.74849,4.21256,5.11397,4.42567,3.75682,0.378281,4.47844,1.55611,0.655044,4.94797,2.32793,1.59609,2.69647,1.19439,0.22949,5.59518,1.22703,0.837083,0.350002,3.74316,1.93322,0.478612,0.431075,5.87114,4.32831,0.559024,0.744389,0.30424,3.52839,0.295493,0.495148,0.373792,0.581642,0.464851,4.85635,0.56623,0.836465,3.81039,1.40355,1.35739,5.59894,0.320139,3.49706,0.30075,2.59242,4.85808,0.384823,5.41475,0.440744,0.833664,0.626875,0.80362,2.48534,0.984934,0.350057,1.81189,0.70931,0.270892,0.592439,3.77996,2.19804,1.44074,1.25543,1.29029,0.25489,0.388375,4.74946
lights,2.91639,1.16426,2.73567,1.46362,1.7809,2.31759,1.45975,1.1114,2.64636,0.966564,0.825527,0.876627,1.75625,5.70312,1.86793,1.19976,2.87357,1.05876,2.7705,3.9095,2.09973,3.19463,1.13282,3.19087,1.47176,1.56003,3.26578,1.13935,1.35014,2.98557,3.65548,1.3119,1.11862,0.434217,1.20485,2.36272,2.01153,0.863555,2.30531,0.40293,0.928642,3.32586,5.54835,0.437655,2.60075,1.2584,0.567977,3.1571,2.08328,2.54342,2.2741,2.11606,1.95895,1.43404,1.31518,2.55667,1.85183,1.31334,0.264417,1.72503,0.948345,1.50524,1.95451,5.35361,3.2197,4.53504,0.768358,3.08166,2.90347,1.29807,2.70426,1.57827,2.8637,0.715493,1.38347,0.170137,5.28598,4.25657,1.14262,1.27132,0.995929,1.92182,0.694222,1.45894,3.66947,2.13882,0.971115,1.01439,0.810592,3.33731,0.243189,1.4432,0.462141,2.04102,1.95516,2.62486,1.20741,1.96438,2.20837,2.09344,0.314655,2.22605,0.72653,1.47357,1.35099,1.90397,2.38381,1.20946,3.15951,1.2261,2.77874,0.532476,2.82677,1.70059,1.40755,0.930179,0.928684,1.04397,0.511046,0.905451,1.8093,1.74791,2.35893,2.32954,1.7771,0.883272,1.07472,4.73109
hull,1.13136,0.312013,0.723175,0.240077,1.01696,0.822618,0.723822,0.628516,2.71376,7.62367,0.533258,0.666896,7.39693,0.240545,6.71292,1.7645,5.67834,0.820151,0.333858,2.0566,2.26164,3.07377,1.27036,0.390696,8.91516,1.83365,0.4409,2.27402,8.08955,1.66795,1.23907,1.83342,1.73222,0.257114,0.958418,0.232844,0.753114,8.40849,0.106757,0.537253,1.38339,0.809681,2.41162,1.40435,7.99261,0.679729,0.394476,5.84398,3.26733,1.09612,0.416102,3.67879,0.983878,1.48732,0.320757,0.765996,0.946535,0.541577,0.190767,1.95422,1.34514,7.00634,0.745918,2.74879,0.242823,0.578233,0.788057,2.68778,6.36903,1.44972,1.8144,1.19863,1.93705,0.119467,0.984458,5.44784,1.17612,3.39115,4.99864,2.48962,1.9391,8.25057,1.60457,1.54595,5.65204,0.600734,0.545476,0.239929,0.70571,1.42128,0.59432,3.36465,2.75417,1.48721,1.32894,0.409502,8.29855,2.01779,1.9205,2.49529,1.1641,1.28761,3.32839,2.83929,1.2122,2.65993,1.91618,0.405803,1.15006,1.88378,7.76695,0.325568,1.7678,0.429386,2.00511,0.82793,2.50002,0.705475,6.31088,2.14961,0.935353,0.216572,1.1831,0.48511,0.503308,5.74105,0.494939,2.02856
net,7.89117,5.45896,3.42059,-0.0305148,2.0227,1.869,0.68489,0.618998,1.82635,0.539992,0.572411,-0.00600181,0.225178,5.39294,0.437237,0.149534,1.05331,4.5031,0.253259,-0.00467525,3.17589,3.24948,0.5373,1.29237,0.433184,-0.278782,1.3021,1.3959,3.41193,1.05843,3.52281,0.788418,2.44315,-0.303687,0.881941,7.75869,1.00974,0.499666,0.714725,1.47578,0.687982,1.09773,0.907956,2.30865,4.68481,1.63117,0.343151,0.382554,2.98411,1.24877,3.63926,2.42252,0.46232,0.466774,-0.107602,2.9371,0.657692,3.06906,0.0654085,1.56615,0.397133,2.48932,1.75766,1.57288,-0.0130782,1.80834,0.0928983,1.0665,3.42688,1.76744,1.88214,1.60319,1.79805,0.36215,1.46788,1.06349,0.698695,8.68964,2.14806,0.457554,0.428668,0.488707,0.983596,0.942097,3.0194,0.471357,1.37541,3.08957,-0.12805,0.904855,0.869378,3.14948,0.116977,1.84467,1.46214,4.39468,0.112274,0.256832,1.49276,4.80699,0.246075,0.472073,0.48019,0.360186,2.12631,0.196343,1.0287,1.55158,5.56403,0.554335,4.90895,5.91189,1.93962,0.098397,0.92208,0.218917,2.72149,0.451918,0.509662,0.423815,0.271896,0.874988,2.91408,1.23295,1.65812,4.86421,1.53854,4.65603
croutons,0.355223,0.717742,0.218926,9.89193,3.72096,7.54613,3.3278,0.485045,0.139429,0.730522,0.643343,0.290357,0.318495,1.77144,0.488899,0.0315555,1.2381,0.0450095,5.86625,0.771988,0.318253,1.06299,0.577732,0.680859,0.519493,3.14487,0.205357,1.88827,0.876211,1.92516,3.19096,0.0717667,0.863064,0.779578,0.248533,0.291577,1.38899,0.152634,0.364826,1.89051,0.347735,9.56467,1.11625,1.43898,0.048199,0.680648,9.44141,0.615432,0.603046,1.59007,1.16035,0.803476,0.450463,3.4245,1.04742,0.388776,2.25507,9.7596,0.411412,0.586194,0.331245,1.13066,0.537313,3.80174,0.238996,0.692402,0.290385,0.0787251,0.534505,1.39995,7.83275,4.05344,0.205742,0.866466,2.10407,2.37924,3.73147,0.409306,7.28023,1.94834,0.0878891,0.411295,3.91231,0.5795,1.25259,2.2665,0.140887,1.47093,0.819452,2.86068,0.00530758,0.790568,1.56226,0.519172,1.24228,0.794908,0.581137,2.04896,0.787043,2.63576,1.75878,3.13133,0.926291,2.24648,5.28426,0.46968,1.07347,3.04805,0.811135,0.618224,1.1513,9.50003,0.478128,0.728764,3.22546,1.17794,0.709124,3.37142,7.48043,0.780579,6.61151,0.604398,2.81996,1.21114,0.601713,1.68815,1.80808,0.939851
banian,0.346559,2.02969,2.59008,0.877555,1.01413,0.921849,3.00805,0.694445,2.24827,1.78126,0.235352,1.262,1.41254,0.299249,1.02098,4.17223,0.870374,0.616791,1.14794,0.596452,2.89391,1.04107,2.16356,1.4637,0.655814,1.25469,0.691922,3.02601,1.91736,0.404921,0.868164,1.92326,1.34683,0.674385,1.74537,0.218104,1.23843,1.81182,0.983425,1.21716,2.87419,1.42135,1.06134,1.22137,1.71133,2.01818,1.95092,4.23964,1.28185,0.481919,1.92996,0.241525,2.39199,0.960047,0.36654,1.01516,1.30187,1.79955,1.89904,1.2176,1.46562,1.81753,1.49104,0.107148,0.979924,0.570728,1.27301,3.31144,0.331618,1.14899,0.721191,2.60141,0.605181,7.10415,1.19265,1.04256,2.03352,1.14545,1.40981,1.86745,2.8652,0.912458,2.14976,1.43627,0.319209,0.717719,1.38901,2.59551,1.73425,0.837931,1.40927,1.92053,1.12618,0.446393,1.55197,1.51305,4.82143,0.789829,2.30402,0.921318,2.41977,0.942697,1.8375,1.87795,1.01191,0.430314,2.36125,1.16383,0.675424,0.579656,0.379037,2.03371,0.863473,1.67236,1.79052,0.684596,0.391305,0.397483,1.38342,1.87321,3.09021,2.31028,1.1528,1.30772,0.560294,0.464237,0.739631,0.452636
counters,2.45461,3.13309,5.39865,0.776594,1.90998,3.30825,0.175922,0.489758,4.36186,0.378693,0.95341,0.174084,0.192963,1.28638,1.19472,0.557619,1.26948,3.70009,0.109381,0.604461,3.64448,2.35658,0.580616,2.13525,0.197367,1.37404,1.37634,1.37402,3.16394,1.23776,5.9842,0.761142,0.987815,0.161219,1.89958,4.42821,0.205995,0.500727,0.26136,2.07615,0.791437,1.90601,0.914096,3.04162,4.79915,1.83618,0.630449,1.1433,2.53895,0.669125,0.379628,0.965329,2.85795,1.1315,0.417678,0.962682,1.87612,3.47163,0.217012,2.09064,0.55264,2.15225,3.83878,3.23311,0.10984,2.28272,0.354881,2.33664,1.57788,1.12389,5.99518,0.683545,1.4426,0.313031,1.30271,1.30715,0.390819,5.9609,1.42721,1.12278,1.76281,0.381287,0.381801,1.1718,2.53351,0.91553,0.486626,1.38655,0.22422,1.10113,1.02681,1.65791,2.75118,0.637584,0.59631,1.28582,2.05664,0.199574,0.582353,1.12897,0.236467,2.16115,0.175787,0.341977,2.59605,1.60833,1.92087,0.953497,2.47983,0.747042,2.96384,2.68148,0.614527,0.884477,2.69066,1.04218,0.359792,1.57533,2.25077,0.702456,1.00991,0.206058,3.23494,1.30952,1.93293,1.90285,1.01389,1.208
helmets,5.75355,1.50485,3.63147,1.15905,2.63079,3.46853,1.91416,1.257,0.748775,0.122356,3.19055,2.18694,1.38483,4.52987,2.14685,2.05028,0.275885,4.84837,4.48195,2.52936,0.368567,1.48198,0.876878,1.60319,0.750937,0.174597,1.72112,1.25779,0.689536,3.67159,0.640504,4.68941,0.559002,4.92758,1.37656,1.38756,4.845,0.555763,2.25726,3.33824,4.37404,3.83801,1.44766,0.80078,4.50299,1.48005,0.855714,2.53262,4.08623,0.562056,0.600458,5.59161,0.688489,4.19318,1.18027,1.39095,1.10466,0.370911,0.227808,0.311893,1.24152,0.317047,4.27705,8.37047,4.52266,3.12661,2.73474,0.452043,5.62409,0.490076,1.40468,0.324677,2.27414,2.50578,0.46472,0.207903,6.49927,6.17208,2.91019,1.1864,0.547902,4.36699,0.409171,4.31587,2.55693,1.8497,4.9115,0.448007,0.728082,3.01974,2.09665,1.67686,2.70568,1.18661,0.781902,2.39399,1.31815,0.55933,0.294912,0.350023,0.457324,2.01724,2.31222,0.973549,0.139174,2.03733,0.971439,3.74519,2.90108,0.215016,5.43024,0.433042,4.59408,2.8687,1.89084,0.648462,3.03602,0.566254,1.24467,3.90872,0.230139,0.770445,1.78422,1.79564,3.21691,1.31058,2.54577,2.56584
niche,1.40695,1.17305,7.27208,3.3077,0.781412,1.63137,0.773454,1.3836,6.25281,0.588823,0.247877,0.397335,3.12515,3.74886,0.961215,3.82553,0.837815,1.1546,0.728235,3.38324,3.27743,0.511115,1.10538,5.194,1.08942,0.983663,2.33915,1.07065,3.0234,1.60995,5.71271,0.880037,0.646312,0.943328,1.17365,1.1734,1.58577,0.703769,0.403053,0.29686,1.0969,1.26114,3.95521,0.656437,3.499,2.60004,0.565412,1.70452,0.820118,2.05267,1.44485,1.05013,2.65437,1.32007,1.95589,1.65865,1.18684,2.03452,0.564207,2.86333,1.81163,0.625281,1.42489,1.49358,0.613898,1.64026,0.947699,4.42283,0.989198,1.28017,5.24376,0.851418,1.93052,1.2898,0.546742,0.7415,1.49274,1.24467,0.902182,1.22504,3.96723,2.87538,0.745754,0.580981,1.48203,1.42041,0.493304,1.31378,1.04441,2.73272,1.84345,0.303455,1.08935,3.05262,0.523348,1.21978,3.67625,0.494523,1.23963,4.64368,1.67638,3.97178,2.57997,0.80731,0.742751,2.10703,5.15391,1.09949,2.24515,0.4008,3.23706,1.37501,1.24773,2.04988,3.12431,1.55647,0.477998,1.30763,0.8674,2.29074,2.21085,1.30135,1.07484,1.20121,2.93069,0.162998,0.700746,1.3006
barometer,8.59593,0.306682,0.447364,0.424005,0.139314,0.292669,4.67725,0.246465,3.56329,0.0551235,0.921908,0.41577,0.333021,14.4542,6.68606,3.58991,0.755369,0.22001,5.6679,8.87942,0.562253,0.202507,5.90837,1.57328,5.17935,2.23886,0.295165,3.05067,2.39041,2.08646,1.92573,0.193802,4.24156,0.133829,0.115973,7.5948,7.1627,0.100785,0.444116,1.03469,1.89461,0.229009,6.8011,0.135106,1.19752,7.57294,0.263381,0.656766,0.655192,10.8464,0.140006,1.10011,0.131939,9.80824,0.094766,10.4561,0.370012,0.216349,0.0628501,11.1363,5.96195,4.22783,0.170117,9.35079,0.578991,10.085,0.207945,7.7927,0.496728,0.21756,11.2844,0.530276,3.40603,0.13828,0.334778,0.201288,11.472,2.12124,0.227162,0.220137,7.33752,0.111814,0.759531,0.239388,1.02891,0.138034,0.132627,0.105774,0.264761,5.64104,0.105396,0.196527,0.202843,0.425874,2.05862,0.103774,2.19511,12.9564,9.14761,9.59897,0.158714,1.02543,0.460934,0.44923,0.884514,0.151347,0.478596,2.34264,1.05351,4.37511,5.2883,3.87036,3.1525,4.13704,11.3699,7.60071,0.412019,0.157461,1.24796,1.4061,0.775405,2.34606,10.0299,0.549179,4.02335,0.130035,0.0986379,8.57647
sinks,0.593258,0.766127,2.01466,2.21454,1.33977,0.976711,3.58116,2.63723,2.04911,1.98902,0.731933,0.766509,3.35006,0.741757,0.950692,1.70612,1.91963,0.516762,1.19739,0.731189,3.20154,0.266419,1.58557,1.49507,1.24258,1.76947,1.05439,1.58136,2.45424,1.21431,0.965475,0.996279,1.03876,1.37999,3.22069,0.207565,1.98413,3.63757,0.42962,0.898702,2.16933,0.643964,1.01933,0.35191,2.42736,1.73422,1.93839,2.1992,0.673132,1.55147,2.17637,0.489726,0.510389,0.51087,1.43281,0.748639,2.37954,1.63215,1.14203,2.01145,1.93756,1.52689,0.897328,0.594944,0.776163,0.509891,0.945175,3.09316,0.826822,0.655825,0.985631,0.865282,1.3383,2.81096,1.33249,1.61367,1.47118,1.37114,3.72076,4.06055,2.52341,2.81376,0.827942,0.958852,1.32237,0.820239,1.26002,2.32201,3.61979,1.13234,1.83934,0.473491,0.693564,4.55903,1.79392,1.99812,5.04166,1.59249,0.763508,2.5338,2.59556,1.42591,3.85211,1.02862,0.883847,1.38211,2.42752,1.64506,0.769113,1.45305,2.17802,1.92238,0.618948,2.87101,0.754585,0.856336,1.15888,0.597504,1.65072,1.80598,0.894935,2.51289,0.552251,0.819614,1.75126,1.16344,1.92173,0.514086
filbert,0.050691,0.760806,0.56128,4.53968,1.8768,4.56414,7.17137,0.582426,0.790373,2.87075,0.455754,1.35422,0.853589,0.077102,3.94506,1.81492,2.94411,0.716234,5.45287,2.11142,1.33171,2.3782,3.17141,0.738454,1.65763,1.4384,0.778918,5.15872,1.21023,0.419107,0.237112,0.324184,6.05024,1.46407,2.03347,0.396304,0.471856,0.563668,0.914778,0.422888,4.19604,2.64365,1.53511,1.6494,0.620078,1.36021,2.87424,2.10313,0.378072,0.85624,1.6627,1.56944,1.71938,0.359297,1.31621,1.14517,0.712518,2.37421,0.775356,0.66788,0.775134,2.84342,1.85929,0.174756,1.39353,1.96068,1.79697,0.767515,0.2641,0.394408,1.42152,5.35361,1.32817,5.47448,0.97995,1.20547,4.16353,0.231413,0.807398,1.81343,1.30964,0.284237,2.48338,0.898024,0.794377,0.436273,3.87261,2.85658,1.05843,1.55719,0.810758,2.17902,0.798447,0.518289,2.82427,1.34347,1.24214,0.586139,2.45764,2.02695,3.7301,0.280075,0.834895,3.2188,0.731709,0.876672,1.23989,3.38338,0.328947,0.768662,0.95067,3.01054,0.452648,1.07929,2.45935,2.10797,0.268557,0.951931,1.96323,1.23639,6.61331,2.84091,0.747434,1.78533,0.284377,0.136647,1.56837,0.960663
herb,0.228516,0.391461,0.522341,2.64756,3.26417,5.58885,6.19649,0.226751,0.6129,2.44616,1.76727,1.82457,1.48815,0.321095,0.915783,1.44108,2.22012,0.219668,5.2655,4.59697,0.996649,1.07798,1.13443,1.13378,4.18233,2.25405,1.70647,4.90023,2.0389,0.245161,0.920892,0.358095,7.35799,1.31856,0.529092,0.606355,0.236881,0.638541,2.11107,1.22964,4.25053,3.01067,2.957,0.604231,0.223495,0.53996,1.64313,2.84763,1.66057,1.4801,2.71488,1.98147,4.48568,0.173828,1.00077,1.98108,0.774733,1.45171,0.33353,0.61018,1.17006,3.29033,1.63879,0.12934,3.27418,2.34994,1.23547,1.80648,0.552651,0.612646,0.836429,6.16671,0.2393,5.0603,1.14235,0.686355,3.20411,0.326726,0.378493,1.12041,1.00276,0.60195,2.56278,0.433826,1.38986,1.07925,4.65903,2.97882,1.05186,3.1713,0.60082,2.17969,0.393519,0.489313,4.81202,2.4549,1.29186,0.44901,0.891045,1.17829,4.59363,0.459116,0.799887,3.06895,0.677445,1.0042,1.80208,2.65348,1.06851,0.561274,1.92464,3.6812,1.23569,0.324847,1.94919,1.28981,0.136457,0.739155,0.866027,2.44348,8.68148,0.76566,2.59492,1.71744,0.365718,0.1032,0.760617,0.589585
men,2.83153,0.634174,4.59193,0.858849,2.31477,0.670956,1.67647,2.08087,2.11416,0.951888,1.61169,2.45831,1.17381,0.962563,1.01399,4.04036,0.591197,2.20989,0.345158,1.22508,1.27356,0.781952,1.00689,1.84427,2.96624,2.76345,0.848633,0.762486,2.50547,0.898983,0.767469,0.725132,0.983607,1.69154,3.26179,2.53673,2.62965,2.07043,1.21519,3.47245,3.35014,0.701665,2.55393,3.78709,5.92488,1.65351,1.16376,1.27233,2.69759,0.561157,0.460069,0.872711,0.72783,1.70565,0.143719,0.169471,2.37557,1.1185,0.928851,1.30742,1.13661,0.926331,3.64828,2.45417,2.77949,0.531009,0.647208,1.46263,0.656917,1.21361,1.31088,1.52266,1.13899,3.32175,1.03346,0.733783,1.09693,2.54983,1.32526,0.807514,0.529911,3.86817,0.76495,2.92759,1.23588,0.831977,1.65654,2.77343,1.17404,0.68304,2.21489,2.87589,0.246141,0.834767,0.260451,0.104094,3.81258,0.494073,0.455804,0.280514,1.33082,1.93239,2.60667,1.38921,1.52764,2.88154,1.25698,4.6418,0.445747,1.38555,1.16327,0.864433,1.76763,1.03656,1.21867,0.31015,3.23311,0.812826,0.402902,0.666791,0.801882,0.260681,0.707573,2.19754,1.6195,1.92006,0.593105,3.54063
pontoon,1.02226,0.340232,1.50902,0.0304767,1.46679,1.63767,0.461568,0.675616,1.51686,4.93035,0.194436,0.975785,6.19361,0.136229,5.46592,1.44597,3.92338,0.538297,0.212489,0.53785,1.03829,2.1747,0.804268,0.0973205,5.36609,1.33665,0.291698,1.32548,4.8629,0.662137,0.362945,3.41103,0.570896,0.140548,0.607185,0.861028,1.23762,6.27932,0.264877,0.45394,3.17144,0.447197,0.491936,1.54462,6.71696,0.295369,0.688528,3.24081,4.69256,0.458201,0.770163,1.38772,0.85022,3.81585,0.221389,0.68752,0.259108,0.969852,0.560706,1.25305,1.43657,4.55773,0.544926,0.827477,0.0577369,0.342967,0.767172,3.264,6.12271,0.465868,1.1156,2.25726,2.00214,0.745578,2.18511,3.27414,0.652235,4.72768,4.68104,3.53208,0.89067,5.83763,1.07806,0.654067,4.47951,0.425453,0.721586,0.72411,1.24545,1.40887,1.73952,4.39722,4.28646,0.798532,1.37828,1.16061,6.97439,1.15414,0.49231,1.38206,0.67248,0.766277,3.67496,1.86124,1.93285,0.736392,1.59865,1.13666,2.93652,1.58494,4.34223,0.559118,1.01597,1.01,1.68765,0.49916,1.2445,0.63491,5.59688,3.01503,1.18923,0.395113,1.82637,0.770085,0.409455,4.36831,0.942336,1.69176
ramps,1.35844,1.47762,2.81814,0.298131,2.088,1.95918,1.28259,1.40867,4.12521,2.60783,1.36315,0.90499,1.7937,0.989427,2.41739,3.61133,2.18623,1.50899,0.502024,0.455418,2.49531,0.875505,1.61963,1.32848,2.68866,0.375433,1.17506,0.809872,3.71011,0.442347,2.65394,3.05362,0.901329,0.318591,0.684685,1.73145,1.95033,1.37959,1.08504,1.27626,3.39395,0.900191,1.79465,1.60768,3.4915,1.59743,1.30531,3.10733,1.85152,1.74659,0.857368,0.798611,2.22291,2.00337,0.648736,0.647823,0.98565,1.69303,1.29341,0.753853,1.08097,3.03709,1.33026,1.10722,0.632052,1.13525,1.39067,4.19116,1.81532,1.36174,2.05783,1.17129,1.34999,1.52102,1.36691,1.72392,1.26045,4.49503,1.9895,1.57392,3.62007,1.67224,0.326851,1.36142,2.90146,0.635649,0.539905,2.46668,1.50012,0.654846,1.65295,2.69954,1.80449,1.08709,0.82471,1.18275,5.24189,0.689362,2.19842,2.22456,1.27508,1.15193,1.35242,0.851557,1.72427,1.42855,3.10518,0.966732,3.14033,2.12872,1.87938,1.09421,1.72932,1.07699,2.33051,0.855608,1.41669,1.67576,0.94316,1.05011,1.13595,0.526404,0.991145,1.15017,1.83327,1.28124,2.31023,1.76013
punch,1.28151,2.2432,0.622529,1.57498,2.36369,3.9693,0.597352,0.188606,0.880988,1.45687,2.37839,0.519737,3.39529,5.27705,1.12854,0.122968,2.54021,0.250363,4.77064,4.45557,0.180773,3.00719,1.14059,0.457751,0.220514,5.24642,1.76475,2.04593,0.903092,5.76634,6.30538,0.387088,0.466389,0.416396,0.565333,0.560956,0.165162,0.203344,0.660714,0.52985,0.240335,8.99926,3.15668,0.258797,0.829317,0.730199,2.17814,0.366584,1.30364,1.48224,1.83953,1.5634,3.60121,4.41853,1.29533,2.31534,3.0806,3.51318,0.257957,0.216432,1.2651,3.40072,2.8,6.81625,1.66257,5.99104,1.64149,2.29559,1.91573,0.380015,3.95335,5.9896,0.923288,0.701303,5.42452,0.884269,3.05945,2.7304,2.73783,2.0173,0.288983,1.03103,0.981268,0.392625,0.411737,2.72656,0.346449,0.448773,0.383799,4.06156,0.180477,1.83795,3.92592,2.61024,1.17268,1.25655,0.243382,2.76271,0.228558,0.699814,0.380593,2.54157,2.84339,0.810719,3.78566,3.81831,0.48859,0.936085,0.383755,3.65664,0.524179,1.59824,0.448555,0.109619,3.05815,0.209056,0.210112,2.24343,5.49265,1.14426,4.34725,1.39536,6.49805,2.35041,0.487933,0.423044,0.548305,2.46292
bookcase,7.13162,6.20309,10.7637,0.577134,0.220305,0.946726,0.199865,0.294699,5.75447,-0.0253139,0.0827559,0.184273,-0.0418542,0.483281,0.445986,0.652864,0.209788,6.69471,0.292622,0.268496,5.88314,0.752946,0.445231,5.85757,0.00336163,0.590327,4.75493,5.76701,1.01996,0.489509,9.92683,-0.03488,6.47499,0.296824,2.25967,9.38798,0.0296098,0.040896,0.290248,4.29653,-0.0475403,0.192465,0.184902,0.0809222,2.43661,0.171614,-0.0807104,1.64379,0.377897,1.45636,0.235065,2.84844,7.84374,0.135256,0.227567,4.23742,0.215949,3.79567,0.526541,3.10936,0.675545,0.527819,1.07316,0.548623,0.0523036,6.74408,2.67057,2.58153,2.32402,2.59632,7.70243,0.221651,0.072298,-0.0393272,0.191086,0.106023,0.101045,3.11151,0.0135005,0.348265,3.0638,0.0652485,0.00222112,0.291692,4.4701,0.126905,0.0318411,0.179639,0.215837,0.758904,6.23341,4.54207,3.84532,0.262106,0.398718,1.27443,0.663467,0.234387,0.351479,0.624656,-0.0518553,3.16232,0.189944,0.215414,5.24286,4.12278,1.15655,-0.12522,5.94851,0.149663,1.5741,4.11734,0.382047,0.406154,4.81341,4.76058,0.167782,3.51422,4.78248,3.2599,0.274924,-0.0061243,5.92856,0.416785,2.19905,2.51118,6.67113,0.240729
china,1.43253,1.53987,2.25607,3.81085,3.80479,4.04517,0.373139,1.7603,1.154,1.36016,1.65142,0.431499,4.63337,7.1839,0.437366,0.312209,0.412549,0.365113,4.58273,6.8109,0.193213,0.59082,0.393889,1.35045,1.18867,4.21442,2.64816,1.24489,0.778933,5.15935,5.75803,3.47604,1.61369,5.62293,1.50374,0.414907,0.707865,0.344694,0.577199,0.274615,0.647237,7.85219,5.21629,0.167697,0.704274,1.75054,1.364,0.60891,1.34814,1.87699,3.52569,2.82792,3.94228,5.6954,1.30843,2.67583,1.9087,1.60022,0.164128,0.438819,0.784889,1.17453,4.29597,8.35895,2.31816,4.67548,1.26792,1.21451,3.1843,0.202136,6.05399,3.07555,0.312456,1.76933,3.38443,0.402508,7.27259,1.74859,1.44993,3.59737,2.20946,0.820003,2.39459,1.03618,1.38929,4.4458,2.80103,0.185342,3.23261,5.30969,0.342038,1.10069,3.48814,4.47939,2.61372,0.524024,0.235278,1.34539,0.915111,0.781831,1.09553,4.25998,1.1486,1.78495,0.720205,2.58019,2.62899,1.36536,1.39947,1.33498,1.69448,1.56639,0.79991,0.742377,5.31331,1.16628,0.357817,2.34725,4.26363,1.98362,2.4611,0.924845,6.17769,2.10544,0.814297,0.218182,1.13047,6.07107
mozzarella,0.953174,0.642031,0.799329,8.96123,3.02671,8.04932,3.25292,1.22577,0.150676,1.82625,2.26307,0.559246,1.10373,1.2683,1.14177,0.168255,1.68237,0.20851,5.54917,2.14413,0.116274,2.49063,0.852214,0.71943,0.728107,1.87617,0.943242,2.00704,0.932657,3.72919,2.97478,0.377574,1.00528,1.152,0.559261,0.40665,1.33181,0.141565,0.740622,1.31895,0.488293,9.19541,1.29447,1.19678,0.174536,0.573272,7.86851,0.638104,1.30182,0.925723,1.87628,1.91186,1.82248,4.1746,2.82041,0.69643,2.51037,7.30679,0.660968,0.615175,0.229239,1.12111,1.0072,5.00595,1.19311,2.14468,1.74543,0.369378,0.866828,1.0858,7.19275,3.48817,0.364981,0.754515,3.01729,1.26788,4.10534,1.2052,4.31824,2.2175,0.173225,0.532775,2.63691,0.94524,1.60694,4.07926,0.50387,1.17876,0.843626,1.19919,0.108997,0.60007,1.61893,1.09739,0.487523,0.976327,0.227606,1.76358,0.461035,2.97212,1.83554,2.93586,1.09192,1.79719,3.4333,1.14035,0.799356,1.34295,1.16919,1.07332,0.712477,5.88797,0.433521,0.953046,5.18251,1.78567,0.88518,2.57997,6.09708,0.589409,5.98844,0.34864,4.11912,1.66456,0.614301,0.594841,3.15322,1.66787
buddy,2.41039,1.00523,4.84978,0.53161,1.51252,2.20298,0.366816,0.45749,1.85757,0.788258,2.26852,1.50702,0.736075,0.83336,1.30491,0.933295,1.25626,1.34693,0.427637,1.40791,0.786012,2.71916,1.18549,2.18078,0.646631,1.43745,1.84377,1.4077,2.15119,2.11019,2.09385,0.776421,1.09487,0.67135,1.75392,1.40156,0.641716,1.30681,2.20759,2.20708,1.27637,3.31905,1.0834,1.94149,4.24213,0.913975,0.660645,0.762519,4.52352,0.477578,1.7408,1.15138,0.943953,1.57414,0.523973,0.211335,1.55244,1.39565,1.44297,0.830819,0.680804,0.386429,3.04768,3.30409,2.39417,1.88969,0.689,3.20347,0.439827,1.7249,0.79774,0.723909,0.705271,1.23571,2.61206,2.34085,0.630867,2.27196,0.522786,0.552653,0.358672,1.40296,0.952318,2.51686,0.606079,1.85867,0.548805,5.27212,1.71967,0.626318,0.843587,1.84345,0.520969,0.520425,0.130868,0.738061,1.20567,0.536005,0.12681,0.953203,0.339654,4.1461,1.06727,0.69037,0.422996,1.24682,0.373173,3.88069,0.978843,1.33484,0.425546,0.478777,2.14296,0.690345,1.65993,0.0827074,1.14041,0.490668,0.819489,0.70915,0.92821,0.82877,1.60753,1.12916,1.81602,2.59569,1.61938,3.48526
studs,3.42231,0.840092,3.77865,0.561475,0.653463,1.2662,1.32273,0.430935,0.897496,2.06678,2.52173,1.49229,3.08955,1.042,1.62482,0.492841,1.60548,1.22907,0.456938,0.68266,0.327427,2.75942,0.936358,1.17646,0.390522,0.51239,1.98043,2.36702,1.79303,2.7975,0.779425,0.767131,0.967665,0.956224,2.70558,1.1009,1.55494,3.36035,3.07908,2.68653,0.319126,3.8134,0.734523,1.63131,3.83367,1.08167,1.10112,0.460989,4.5276,1.16119,2.00444,0.398581,0.805766,4.18066,0.55736,0.400832,1.0202,0.74684,0.995795,0.418882,1.96267,0.425095,3.26298,3.3713,2.07899,3.96768,0.741944,2.03854,0.477108,2.71763,0.753462,0.402049,0.995209,1.00731,3.2852,3.48601,0.810503,3.82326,0.211278,2.17513,1.30089,1.65766,1.58379,2.0115,1.09876,2.21812,1.49224,4.94165,1.44445,0.410907,0.561421,3.73802,0.295099,0.997888,0.0125901,0.483838,0.837824,0.638904,0.210242,0.551016,1.09056,1.71954,1.0223,1.38335,0.345872,1.14672,0.116415,3.60448,1.46442,0.409038,1.39029,0.691671,1.00659,0.811879,0.945433,0.498292,0.752557,0.322163,1.97595,2.19492,0.325042,2.08858,0.705476,0.797436,0.561847,1.27719,3.59046,4.44484
kids,2.80432,1.11435,3.81246,1.2475,1.63291,2.42235,0.514447,0.667073,1.32861,1.36823,2.98777,1.23069,1.75018,1.07568,0.492985,1.19699,1.24456,1.1834,0.743449,0.890804,0.470541,2.74145,0.607552,1.33902,0.536775,0.900393,2.30569,1.13335,2.60356,1.18183,1.71633,1.13688,1.0708,1.01538,0.768116,0.80789,0.764018,1.70477,3.30176,3.06196,1.48911,2.30098,1.17068,1.15883,2.75605,1.09493,1.86936,0.79965,3.3701,0.425693,1.36419,0.7149,1.57109,2.76052,0.9904,0.253623,1.17873,1.08645,2.54843,0.888741,1.02532,0.620076,2.8845,3.56353,1.90629,2.59199,1.19621,1.52761,0.915652,1.1398,1.00743,1.12127,0.35443,1.78337,3.65039,1.66813,1.69908,2.74922,0.491996,1.33328,0.892388,1.12898,1.80276,0.961772,1.68605,2.72803,0.818381,3.30943,1.25114,0.307292,0.975316,1.53479,0.706368,0.510963,0.417859,0.774989,1.62047,0.616729,0.431734,0.763674,0.734151,2.82609,1.69672,0.723118,0.570005,1.49818,0.414036,4.26943,2.24256,1.02278,0.844032,1.05308,2.1242,0.812685,1.85282,0.19427,0.68847,1.1407,0.780086,0.979126,1.31634,0.411941,2.29835,0.763741,1.65418,1.55374,2.79353,3.25698
luggage,6.89599,0.623199,4.81575,1.22356,4.08925,1.52925,1.51479,0.777878,3.54177,2.54717,3.11126,0.341771,1.21209,1.35929,1.27861,2.31875,0.677846,3.36733,0.142439,0.0649829,0.476903,0.937149,0.79955,2.97474,0.140106,0.425487,4.36885,0.648629,0.541311,2.65213,1.86179,5.4586,3.34265,2.03928,0.714987,3.17841,4.5731,0.421735,1.45622,2.7483,2.74877,4.16748,1.76465,0.546386,2.41932,1.11643,1.06333,0.512659,3.98021,1.75484,0.425843,3.09108,2.95247,1.39784,0.847003,1.79712,1.80981,0.666551,0.704046,0.892109,0.280315,0.485976,1.50068,5.54783,0.360283,2.93066,0.693207,1.21769,7.68499,1.69817,1.75085,4.02508,2.39449,0.436446,1.80578,0.654849,2.65545,4.11882,0.793277,1.46775,3.86857,1.70568,0.990933,2.32652,1.41341,1.70716,0.303157,0.595721,1.53645,0.396186,2.9665,3.57203,3.677,2.52379,1.32309,0.6019,1.91024,2.72351,1.28383,0.82108,3.40612,1.76445,0.673493,2.10907,1.64598,3.08579,2.82456,3.01759,4.51576,1.17765,5.91415,2.68832,1.25357,1.79916,1.04166,0.64367,4.34498,2.73081,0.316922,1.01593,0.536203,4.78448,0.351679,0.676938,2.45857,1.8328,2.9551,6.74005
